{"classes": ["A", "B", "C", "O"], "layers": [{"type": "Dense", "units": 128, "activation": "relu", "weights": [[0.07968010008335114, -0.08719949424266815, -0.1509585827589035, 0.11816221475601196, 0.07651618123054504, 0.1529885232448578, 0.09264954924583435, 0.05959348380565643, 0.00757087767124176, -0.15255314111709595, -0.09297113120555878, 0.004989072680473328, 0.0798649787902832, -0.08478900045156479, 0.031396180391311646, -0.07824184000492096, -0.06818282604217529, -0.050301894545555115, -0.0687122568488121, 0.12609824538230896, -0.05663035809993744, 0.019121870398521423, 0.10104203224182129, 0.07690054178237915, 0.0660373717546463, 0.00888967514038086, -0.030530110001564026, -0.08260980248451233, -0.11076023429632187, 0.10963365435600281, -0.048087626695632935, 0.11655503511428833, 0.11158207058906555, -0.10364198684692383, 0.06780543923377991, 0.06945982575416565, -0.12801240384578705, -0.09293928742408752, -0.003105446696281433, -0.14679399132728577, 0.13957050442695618, 0.02359950542449951, 0.02095790207386017, -0.11988066136837006, -0.0860760360956192, -0.1326703280210495, -0.11170271039009094, -0.1308838278055191, 0.043268024921417236, 0.11889615654945374, 0.11167144775390625, -0.0014077723026275635, -0.02384282648563385, 0.09929317235946655, 0.12646687030792236, -0.05949343740940094, 0.05418677628040314, 0.06525188684463501, -0.07184455543756485, 0.12104076147079468, 0.09155455231666565, 0.052656903862953186, 0.13119912147521973, -0.05503060668706894, -0.0399930402636528, -0.10765215754508972, 0.06558097898960114, 0.09477424621582031, 0.11812064051628113, 0.11702853441238403, -0.1169041246175766, 0.03906598687171936, -0.10555896162986755, 0.0075827836990356445, -0.0020340532064437866, 0.08908858895301819, -0.0927312970161438, 0.07797005772590637, -0.058584533631801605, -0.04380478709936142, 0.10973253846168518, 0.10244399309158325, 0.14248332381248474, 0.00024031102657318115, 0.018489763140678406, -0.13130947947502136, 0.10132074356079102, 0.0946103036403656, 0.0978659987449646, 0.10210856795310974, -0.07296775281429291, -0.07841509580612183, 0.0962538868188858, -0.09769020974636078, 0.019876211881637573, 0.022572532296180725, 0.04527558386325836, 0.1026773452758789, -0.14336474239826202, -0.09277808666229248, -0.11228670179843903, 0.029769450426101685, 0.0037649869918823242, 0.038415491580963135, 0.09362070262432098, 0.1369347870349884, -0.051709190011024475, 0.025275081396102905, 0.026375338435173035, 0.08403721451759338, 0.13511240482330322, 0.11414188146591187, 0.06136399507522583, -0.010716184973716736, 0.005316808819770813, 0.08887121081352234, 0.021160364151000977, 0.06917496025562286, 0.04408159852027893, -0.09981433302164078, -0.073458231985569, 0.08242514729499817, 0.0883166491985321, 0.06603917479515076, 0.14728838205337524, -0.12441384792327881, 0.09927129745483398, -0.12184399366378784], [-0.06572949886322021, -0.03248273581266403, 0.07096162438392639, -0.14142800867557526, -0.023809149861335754, 0.15163612365722656, -0.041554972529411316, -0.0994470864534378, 0.035967737436294556, 0.13258212804794312, -0.08610619604587555, -0.0179910808801651, 0.03867596387863159, -0.011542975902557373, 0.08682990074157715, -0.13587132096290588, 0.09166643023490906, 0.053027257323265076, -0.11682941019535065, -0.13937966525554657, -0.1325651854276657, -0.12157638370990753, 0.0587819367647171, 0.08646519482135773, 0.0018215924501419067, 0.1164858341217041, -0.0004413723945617676, 0.029574766755104065, 0.08673639595508575, 0.05008220672607422, 0.04894912242889404, -0.1081453412771225, -0.04538493603467941, 0.09074392914772034, -0.03615615516901016, 0.003340214490890503, -0.11328329145908356, 0.11130905151367188, -0.024211019277572632, 0.10452136397361755, 0.05000375211238861, 0.09727129340171814, 0.036032333970069885, 0.08180873095989227, 0.08626855909824371, -0.02206350862979889, -0.004975616931915283, 0.10459759831428528, -0.10054299235343933, 0.09972134232521057, 0.05227816104888916, 0.10444018244743347, -0.14942435920238495, -0.134211003780365, -0.14138634502887726, 0.042930975556373596, -0.04749700427055359, -0.1477622389793396, -0.05013299733400345, 0.13349366188049316, -0.12303802371025085, 0.1358615756034851, -0.0355822816491127, 0.12293878197669983, -0.08826883137226105, 0.04996389150619507, 0.0038840025663375854, 0.05241410434246063, 0.03696545958518982, 0.11457788944244385, -0.04355575889348984, 0.03136920928955078, -0.07136030495166779, 0.12810635566711426, -0.05251876264810562, 0.13282403349876404, -0.011103108525276184, 0.07379622757434845, -0.0755583867430687, -0.12020382285118103, 0.10746043920516968, -0.1382301151752472, 0.1363990604877472, -0.10957568883895874, -0.14308840036392212, 0.1396631896495819, -0.14147692918777466, -0.11077749729156494, 0.0010717958211898804, -0.09216060489416122, -0.14158418774604797, -0.13899117708206177, 0.10228416323661804, -0.02896113693714142, -0.033414438366889954, 0.09746533632278442, 0.09169706702232361, -0.15185591578483582, -0.047097913920879364, -0.036958321928977966, -0.09650427103042603, -0.1308148354291916, -0.088334821164608, -0.033652111887931824, -0.022090226411819458, -0.04871712625026703, 0.04111231863498688, -0.007269039750099182, -0.04369878023862839, -0.06277689337730408, 0.02174217998981476, 0.0578717440366745, 0.12166646122932434, -0.0556340217590332, -0.03992209583520889, 0.11381208896636963, 0.0953381210565567, 0.07260945439338684, 0.11119520664215088, -0.027607113122940063, -0.1156020313501358, -0.03812095522880554, -0.1359514743089676, 0.14877861738204956, -0.14730609953403473, -0.15262345969676971, 0.13953730463981628, 0.10249093174934387], [0.01866990327835083, -0.13674813508987427, -0.005073279142379761, -0.011125057935714722, 0.03551356494426727, -0.14782379567623138, 0.14820685982704163, 0.04640614986419678, 0.11089646816253662, -0.09552182257175446, 0.1341056525707245, 0.09690967202186584, -0.08887036889791489, -0.10928165912628174, 0.1210985779762268, -0.1268518567085266, 0.032888010144233704, 0.05992983281612396, 0.002119794487953186, 0.1300664246082306, 0.030661627650260925, 0.11882013082504272, -0.0643232986330986, -0.09665044397115707, -0.017461761832237244, 0.056064069271087646, -0.13759014010429382, 0.12836715579032898, -0.08365839719772339, -0.1271325796842575, -0.013568639755249023, -0.033058516681194305, -0.047818221151828766, 0.09771022200584412, 0.11945369839668274, -0.14846374094486237, 0.09887328743934631, 0.0021380484104156494, -0.06522136181592941, 0.13272330164909363, 0.052923887968063354, 0.03627081215381622, -0.020659074187278748, 0.08609923720359802, 0.029131680727005005, -0.10287081450223923, 0.03397645056247711, -0.039883069694042206, -0.019017696380615234, 0.006618693470954895, 0.12316203117370605, -0.061394400894641876, 0.08095911145210266, 0.14132097363471985, 0.08044618368148804, 0.12120294570922852, 0.036103129386901855, 0.05837361514568329, 0.07124254107475281, -0.01820497214794159, -0.007982999086380005, -0.11317966878414154, -0.035736292600631714, -0.014152005314826965, 0.07214133441448212, -0.03648770600557327, 0.10809782147407532, -0.12418075650930405, 0.0009809434413909912, 0.05186085402965546, -0.0010994523763656616, 0.05515746772289276, 0.053517669439315796, 0.05621705949306488, -0.15159493684768677, 0.04034397006034851, 0.10227581858634949, -0.05124388635158539, 0.0020417869091033936, 0.08316132426261902, -0.01917053759098053, 0.020566657185554504, -0.07922634482383728, -0.01267196238040924, 0.0675155520439148, 0.07621555030345917, 0.0030876249074935913, 0.02696797251701355, -0.05966009944677353, -0.004592105746269226, 0.11356154084205627, -0.07288508862257004, 0.11091086268424988, -0.01270189881324768, -0.1375337839126587, -0.11201997101306915, 0.027544081211090088, 0.15216627717018127, 0.0390872061252594, -0.11487095057964325, 0.006267756223678589, 0.09878262877464294, 0.08964098989963531, -0.006509825587272644, -0.12731730937957764, 0.05767066776752472, 0.11065059900283813, -0.01885858178138733, -0.045259028673172, -0.025633737444877625, 0.12126684188842773, -0.11500877141952515, -0.02228301763534546, 0.12895938754081726, 0.039304688572883606, 0.024799257516860962, -0.11881557106971741, -0.1333446353673935, 0.1424347460269928, -0.10533326864242554, 0.08349485695362091, 0.059830307960510254, -0.11977025121450424, -0.03418751060962677, 0.13669884204864502, 0.09733054041862488, 0.12105724215507507, 0.06546683609485626], [0.06641288101673126, 0.10100541263818741, -0.0879208892583847, -0.13680700957775116, -0.07370568811893463, -0.023539572954177856, 0.0965057909488678, -0.028547167778015137, 0.01696050725877285, 0.0406520739197731, 0.017060592770576477, -0.05655863508582115, 0.08588021248579025, -0.07499562203884125, 0.04930216819047928, -0.08364636451005936, 0.10917341709136963, 0.08268103748559952, -0.17643526196479797, -0.05293520912528038, 0.02981298603117466, -0.15222395956516266, 0.08860783278942108, 0.09873631596565247, 0.060213152319192886, 0.0328575000166893, 0.05733419954776764, -0.11790738254785538, 0.10043229162693024, -0.000307426176732406, -0.0687909871339798, -0.14844322204589844, -0.05759209021925926, -0.04937145113945007, -0.08937075734138489, 0.08723121136426926, -0.13948452472686768, -0.07425834238529205, 0.062140706926584244, -0.13158826529979706, 0.07788141071796417, -0.0256377924233675, -0.07061465829610825, 0.12659110128879547, 0.09546718746423721, -0.06895820796489716, -0.1889265477657318, 0.05134843289852142, 0.02915504015982151, 0.008937163278460503, -0.10146516561508179, -0.054776258766651154, 0.17226827144622803, 0.05210461840033531, 0.11090753972530365, 0.005188221111893654, 0.10254336148500443, 0.0030735379550606012, -0.025117654353380203, 0.012800723314285278, -0.10702670365571976, 0.11261900514364243, -0.15936681628227234, 0.23595716059207916, 0.0038408448453992605, 0.14144566655158997, 0.027519986033439636, -0.03617020696401596, 0.06701718270778656, 0.05245333909988403, -0.02285901829600334, -0.106481172144413, -0.012142018415033817, 0.19428537786006927, -0.05545651167631149, 0.00883364025503397, 0.037102941423654556, 0.010342121124267578, -0.12411432713270187, 0.1430843025445938, 0.09283053874969482, -0.019445478916168213, 0.19943737983703613, 0.02763242833316326, 0.06597983092069626, -0.03283527120947838, -0.15986646711826324, -0.13497401773929596, -0.1271546632051468, -0.13636691868305206, 0.15174983441829681, -0.14695975184440613, 0.0923081636428833, 0.05252513289451599, -0.04278692230582237, -0.173826202750206, 0.15302307903766632, 0.12235940247774124, 0.09058468043804169, 0.058175865560770035, -0.027180301025509834, 0.15942655503749847, 0.06420321017503738, 0.20809826254844666, 0.13366281986236572, 0.004682170692831278, -0.1050090566277504, -0.047930918633937836, 0.11944933235645294, 0.12203735113143921, 0.04008636623620987, 0.004264771938323975, -0.18504399061203003, -0.01771317981183529, 0.08605335652828217, 0.044122401624917984, 0.12077279388904572, 0.04455415904521942, -0.05241421237587929, -0.054077405482530594, -0.04687219113111496, 0.04328908026218414, -0.17072783410549164, 0.06185319647192955, 0.09523296356201172, 0.02818855457007885, -0.058842793107032776, 0.04016193747520447], [0.14707422256469727, -0.019461603835225105, -0.007582006510347128, -0.11436136066913605, -0.14816682040691376, 0.021702885627746582, -0.03814287483692169, -0.11080808937549591, -0.11593864113092422, -0.052150528877973557, -0.05639595538377762, -0.06337035447359085, 0.017800569534301758, -0.028497757390141487, -0.09973084181547165, 0.14601445198059082, 0.1326976716518402, 0.15986435115337372, -0.05784580484032631, 0.037060584872961044, 0.07807915657758713, -0.09590577334165573, -0.008731153793632984, 0.006207307334989309, -0.03670720010995865, 0.06905416399240494, 0.18077322840690613, 0.08684060722589493, 0.005843672435730696, -0.03421751782298088, 0.18343156576156616, -0.0976613312959671, 0.0971742570400238, 0.07402622699737549, 0.1494067907333374, -0.15561765432357788, 0.007824414409697056, -0.014063283801078796, -0.0576825812458992, -0.15347051620483398, 0.07532957941293716, 0.1452198326587677, -0.01317006628960371, -0.1132977157831192, 0.10082004964351654, 0.08059626817703247, -0.04545403644442558, 0.17336632311344147, 0.17747566103935242, 0.069864921271801, -0.15351419150829315, 0.05362491309642792, -0.03323375806212425, -0.035771358758211136, 0.07199908792972565, -0.19181084632873535, -0.014592483639717102, -0.07391969859600067, -0.12525388598442078, 0.12106060981750488, -0.11862746626138687, -0.1070656031370163, 0.14680366218090057, 0.029360221698880196, -0.13550230860710144, 0.0034072399139404297, 0.015720058232545853, 0.0530630424618721, -0.0017659214790910482, -0.0033333897590637207, 0.009528938680887222, 0.15350006520748138, -0.1888449341058731, 0.10372799634933472, -0.2088358998298645, 0.04508574306964874, -0.08070206642150879, 0.04367232322692871, -0.04314134642481804, 0.04045448452234268, 0.10331947356462479, 0.13988173007965088, 0.016576236113905907, 0.030921781435608864, 0.06643819063901901, -0.07357083261013031, -0.0013213149504736066, -0.16010689735412598, 0.009462925605475903, -0.14804373681545258, -0.23648545145988464, 0.12632106244564056, -0.07604148983955383, -0.033273763954639435, 0.1666993945837021, -0.1444977968931198, 0.04070129618048668, -0.009668503887951374, -0.05203545466065407, 0.0641225129365921, -0.09052371978759766, 0.11879274249076843, 0.059546131640672684, 0.1513930857181549, 0.1359998732805252, 0.09787160903215408, 0.03553054854273796, 0.08041244745254517, -0.1830560564994812, -0.06791656464338303, -0.01234905980527401, -0.050812095403671265, -0.15899965167045593, 0.15175274014472961, -0.02947545424103737, 0.0949961319565773, 0.07165662944316864, -0.0661083534359932, -0.12183055281639099, 0.044019754976034164, -0.020567938685417175, -0.08303333818912506, -0.10008589923381805, -0.11586461216211319, 0.06466061621904373, -0.046480048447847366, -0.051270753145217896, 0.13752388954162598], [0.04113040864467621, -0.058887261897325516, 0.06407439708709717, -0.1328893005847931, -0.09176437556743622, 0.06194601207971573, -0.08508925139904022, 0.14870229363441467, -0.15622636675834656, 0.06116092577576637, -0.015198562294244766, -0.1302165538072586, 0.1829293668270111, 0.08527825772762299, -0.05925564095377922, 0.012943453155457973, 0.07726272940635681, 0.12418773770332336, -0.16021046042442322, -0.07914147526025772, 0.020476415753364563, -0.07500474154949188, -0.0528067909181118, -0.12328958511352539, -0.22087159752845764, 0.016593672335147858, -0.1413799524307251, 0.02776479721069336, -0.07202398031949997, -0.08620183169841766, 0.16713722050189972, -0.17745469510555267, 0.09593340009450912, -0.036447178572416306, 0.02769092656672001, 0.014795031398534775, 0.04535307735204697, 0.01680731773376465, -0.014667502604424953, 0.10844174027442932, 0.04629570245742798, -0.0730205550789833, 0.039794113487005234, -0.03481760248541832, -0.04076912999153137, -0.11573805660009384, -0.022266171872615814, 0.14683444797992706, 0.05585739389061928, 0.1586109697818756, 0.012037915177643299, -0.15452243387699127, -0.15048137307167053, -0.17239880561828613, -0.04989932104945183, -0.011006109416484833, -0.013863973319530487, -0.19038045406341553, -0.16875626146793365, -0.04413355141878128, -0.2309224009513855, -0.007621400523930788, -0.007019161246716976, -0.029691025614738464, 0.1023484319448471, 0.09684136509895325, -0.062125422060489655, -0.17622487246990204, -0.06968571990728378, 0.14231939613819122, -0.10249244421720505, 0.10812819749116898, -0.03001525066792965, 0.03885126858949661, -0.19331388175487518, 0.1064600721001625, 0.091494619846344, -0.1071450412273407, -0.11967985332012177, 0.043492238968610764, 0.003631775500252843, -0.1488734483718872, -0.023889269679784775, 0.0318930447101593, 0.06064645200967789, 0.04705805703997612, 0.07263080775737762, -0.059185467660427094, 0.06523306667804718, -0.06028037145733833, -0.08644264936447144, 0.1263357549905777, 0.0006170088308863342, 0.03494468331336975, -0.06974340975284576, -0.07838881015777588, 0.15146693587303162, -0.018672503530979156, 0.10315348207950592, 0.01876898854970932, 0.0029917657375335693, 0.15115225315093994, -0.10999099910259247, 0.19314125180244446, 0.057299207895994186, 0.03626563027501106, 0.14527373015880585, 0.05249946191906929, 0.0024488007184118032, 0.11347987502813339, 0.13684780895709991, -0.04386550188064575, 0.06149740517139435, 0.10324164479970932, -0.03676028922200203, -0.0198617372661829, 0.09608414024114609, 0.15326708555221558, -0.09708625823259354, 0.13626830279827118, 0.07507696747779846, -0.058063723146915436, -0.19625644385814667, 0.0536552332341671, -0.07821822911500931, -0.013817034661769867, -0.13983947038650513, 0.10920178890228271], [0.11603830754756927, -0.017723068594932556, -0.08410269021987915, -0.008524366654455662, -0.07179068773984909, 0.13802719116210938, 0.0473809614777565, 0.15364935994148254, -0.03434119373559952, -0.07553402334451675, 0.09594836086034775, 0.14479543268680573, -0.1300135999917984, -0.043906789273023605, -0.1722370982170105, -0.10469860583543777, 0.055109426379203796, 0.1732039898633957, 0.11702641099691391, -0.08989592641592026, -0.10107897222042084, 0.026211947202682495, 0.07375785708427429, -0.030578548088669777, -0.076813243329525, -0.06548252701759338, -0.10557179898023605, -0.17163631319999695, -0.014638853259384632, -0.02452916093170643, 0.07178787887096405, -0.07434087246656418, 0.08344721794128418, -0.06369873136281967, -0.10293089598417282, -0.14167366921901703, 0.030983280390501022, 0.05447359383106232, -0.08103068172931671, 0.07818819582462311, 0.06204009801149368, 0.09072984755039215, 0.12924806773662567, 0.054984450340270996, 0.19611163437366486, -0.017877735197544098, -0.17990389466285706, -0.07233262807130814, 0.1691829413175583, -0.020309370011091232, 0.2001066654920578, -0.1496097892522812, 0.09008552134037018, -0.10502810776233673, -0.013802563771605492, 0.056581493467092514, 0.19989816844463348, -0.04259297251701355, -0.0800100639462471, 0.010025709867477417, 0.01428364310413599, 0.11929871141910553, 0.03181378170847893, 0.10079086571931839, -0.05518190190196037, 0.1427406370639801, -0.08169262856245041, -0.10441756248474121, -0.12822984158992767, -0.0655820369720459, -0.08878225833177567, 0.06116507202386856, 0.07612033933401108, -0.014916572719812393, 0.008804036304354668, 0.016828132793307304, 0.1844608336687088, -0.137776181101799, -0.06624223291873932, 0.13724657893180847, -0.07374761998653412, 0.004745468497276306, -0.06298679858446121, 0.11214850842952728, -0.0696842148900032, 0.016392316669225693, 0.07477720081806183, -0.048528824001550674, 0.09832867980003357, -0.08067606389522552, 0.022603487595915794, 0.04159235954284668, 0.15574216842651367, 0.08007446676492691, -0.15549145638942719, 0.09359753131866455, 0.14190396666526794, -0.11835692077875137, 0.12365070730447769, -0.07796788960695267, -0.0360557958483696, 0.02837691642343998, -0.067158043384552, 0.15784606337547302, -0.014354242011904716, -0.009245629422366619, -0.016094842925667763, 0.12365264445543289, -0.07307393848896027, -0.057137250900268555, 0.15138617157936096, 0.13425315916538239, 0.02210676297545433, 0.19010187685489655, 0.028257299214601517, -0.11277606338262558, -0.1483333706855774, 0.07779055088758469, 0.015397388488054276, 0.03724076598882675, 0.0701848566532135, -0.11245004832744598, 0.07819850742816925, -0.1541844606399536, 0.056860487908124924, -0.0064645130187273026, -0.15222536027431488, -0.03392375260591507], [-0.027465250343084335, 0.07175394892692566, -0.059385281056165695, -0.10781818628311157, 0.1365838348865509, -0.031010717153549194, -0.013580667786300182, 0.057129308581352234, -0.1485217660665512, 0.039217766374349594, 0.07629869878292084, -0.1656104028224945, 0.06291834264993668, 0.15537726879119873, -0.19885262846946716, -0.014959907159209251, 0.10661554336547852, 0.09378937631845474, -0.12108706682920456, 0.013436228036880493, 0.011757628060877323, -0.04446404427289963, 0.05380695313215256, -0.1373959630727768, -0.17354442179203033, -0.022551408037543297, 0.1982220858335495, 0.003170608077198267, 0.05399216338992119, 0.1279991716146469, 0.06382235884666443, 0.026049025356769562, 0.026022300124168396, 0.11883305013179779, -0.1013757511973381, -0.12239270657300949, -0.1317245364189148, 0.1365220844745636, -0.05441435053944588, 0.13441792130470276, 0.11440788209438324, -0.04117250442504883, 0.15143510699272156, 0.07104698568582535, -0.17293588817119598, -0.18922564387321472, 0.09329819679260254, -0.035984430462121964, 0.013313901610672474, 0.08866027742624283, -0.11251643300056458, 0.061873458325862885, -0.03598365932703018, -0.010585016570985317, 0.019821060821413994, -0.08690936118364334, -0.07166216522455215, 0.023235931992530823, 0.083819679915905, 0.11782050132751465, 0.05773715302348137, -0.08302038162946701, -0.031313057988882065, -0.18874123692512512, -0.1251012086868286, -0.1448248028755188, -0.0008399845100939274, 0.07970131933689117, 0.07672885805368423, 0.1151290237903595, -0.05237395316362381, -0.020643485710024834, -0.004687044303864241, -0.014028236269950867, 0.058302756398916245, -0.2008824348449707, -0.1215081661939621, -0.07164836674928665, -0.048842113465070724, -0.10905392467975616, 0.06451278924942017, 0.0066197216510772705, -0.05643412470817566, 0.05479797348380089, -0.15404647588729858, -0.17473740875720978, 0.13784155249595642, 0.03526937589049339, 0.06610283255577087, 0.04077112674713135, -0.1280093789100647, 0.1606294810771942, 0.1376846879720688, -0.12471955269575119, -0.013389131985604763, -0.15811997652053833, 0.06209122762084007, 0.03859436511993408, -0.06847918778657913, 0.06290303170681, 0.0279105082154274, -0.09271152317523956, -0.12704341113567352, 0.14464819431304932, -0.12432552874088287, 0.08293500542640686, 0.14590732753276825, -0.16529372334480286, 0.03592485189437866, -0.0045633502304553986, -0.06409585475921631, -0.16804084181785583, -0.1455090194940567, -0.07553756982088089, -0.05228791385889053, 0.09533198922872543, -0.10854183882474899, 0.16781115531921387, 0.09706564247608185, -0.10459885001182556, -0.038442790508270264, -0.056571342051029205, -0.1649371236562729, -0.13740721344947815, 0.09376931935548782, -0.08710888028144836, 0.0764634907245636, -0.04667317867279053], [0.15521053969860077, 0.11372885853052139, -0.011121479794383049, 0.014551659114658833, 0.14161276817321777, 0.043448299169540405, 0.08978737890720367, -0.05559360235929489, -0.002812366932630539, 0.08585189282894135, 0.15917544066905975, -0.19265082478523254, 0.14096598327159882, -0.10166475921869278, -0.225957453250885, 0.10439768433570862, 0.10653144121170044, 0.004903655033558607, 0.031240345910191536, 0.10049919784069061, 0.056864622980356216, -0.09963297843933105, -0.03507925197482109, -0.019535960629582405, -0.13744749128818512, -0.09509813785552979, 0.09137149155139923, 0.04720757529139519, 0.15689824521541595, 0.1331162452697754, 0.03920040279626846, -0.04259910434484482, -0.06386551260948181, 0.038795989006757736, -0.0634256973862648, 0.08195555955171585, 0.08961732685565948, -0.1296817660331726, 0.1878873109817505, -0.01906067132949829, -0.057697247713804245, 0.17000934481620789, -0.03870585188269615, 0.1577976644039154, -0.0036375136114656925, -0.0991198942065239, -0.15317592024803162, 0.1881425678730011, -0.006411815527826548, 0.007914196699857712, -0.1537102609872818, -0.04331909120082855, -0.04367677867412567, 0.07446237653493881, -0.12123367935419083, -0.10515562444925308, 0.13044977188110352, -0.1788787692785263, -0.17818763852119446, -0.14434140920639038, -0.08432328701019287, 0.11681941896677017, -0.06451129168272018, 0.07831525802612305, -0.12018610537052155, -0.12446939945220947, -0.10769504308700562, 0.03418472409248352, -0.039226654917001724, 0.18064071238040924, -0.04156174510717392, -0.07839950174093246, -0.12284891307353973, 0.09914732724428177, -0.12465885281562805, -0.045618414878845215, -0.040288154035806656, -0.12412410229444504, 0.0735008716583252, 0.1203966811299324, 0.06172303110361099, -0.0541665181517601, 0.030404942110180855, -0.018050283193588257, 0.1617472618818283, 0.10935511440038681, 0.18371683359146118, -0.10709274560213089, -0.12287447601556778, -0.13978362083435059, -0.1547030657529831, 0.07817915827035904, 0.13015152513980865, -0.2068755328655243, 0.10602741688489914, -0.0909397155046463, 0.07163964956998825, 0.15042951703071594, -0.11888226121664047, -0.11600426584482193, -0.12253054231405258, 0.03592001274228096, 0.09909243881702423, -0.08912664651870728, 0.065901979804039, 0.07973204553127289, 0.07208932936191559, 0.050823960453271866, -0.09904380887746811, -0.01772628352046013, -0.007745725102722645, -0.18518027663230896, 0.02673550881445408, 0.04808696359395981, 0.08300863951444626, 0.19737286865711212, -0.12838511168956757, 0.09643860161304474, 0.06972751021385193, 0.09874844551086426, -0.06429911404848099, 0.016166172921657562, -0.16153183579444885, 0.11429271101951599, 0.039224136620759964, -0.1426161378622055, 0.04039575159549713, 0.05095180869102478], [-0.03970712795853615, 0.0591411329805851, -0.10268945246934891, 0.091522216796875, 0.09800300002098083, -0.034075215458869934, -0.02435215376317501, -0.148342564702034, -0.10243678092956543, 0.0754299983382225, 0.01320269051939249, 0.017758606001734734, 0.053389810025691986, -0.05399884656071663, -0.1178048625588417, -0.14084626734256744, 0.13117101788520813, 0.1941654533147812, -0.13167640566825867, -0.11944856494665146, -0.07779525220394135, -0.056585513055324554, 0.0986991673707962, -0.08957120031118393, -0.12260137498378754, 0.07269533723592758, 0.0424308180809021, 0.04012502357363701, 0.11750144511461258, 0.08333483338356018, 0.12025737762451172, -0.006757019087672234, 0.07012924551963806, 0.019534211605787277, 0.025394972413778305, 0.014060613699257374, -0.12538135051727295, 0.03566516935825348, -0.06104206293821335, 0.0976012647151947, -0.0760546550154686, 0.22701948881149292, 0.015493147075176239, 0.13265901803970337, 0.15975290536880493, 0.06664593517780304, -0.18250076472759247, 0.06305022537708282, 0.11072835326194763, 0.07826387137174606, -0.013842949643731117, 0.03231509402394295, 0.19347414374351501, -0.002647739602252841, 0.03275829181075096, -0.06397233158349991, 0.12626978754997253, -0.1187497153878212, 0.037115391343832016, -0.10092456638813019, 0.07636287063360214, -0.06552492827177048, 0.03318469971418381, 0.06729330867528915, 0.16395020484924316, 0.06487126648426056, 0.16539520025253296, -0.1554974913597107, -0.04994283244013786, 0.21620747447013855, -0.0813821405172348, 0.0796908438205719, 0.08288624882698059, -0.06721863895654678, 0.052631620317697525, 0.09465537220239639, -0.10657083988189697, 0.10925504565238953, -0.06374785304069519, -0.02423945441842079, 0.0779319703578949, 0.10354521870613098, -0.07405910640954971, 0.030103370547294617, 0.03936168923974037, -0.028431033715605736, -0.1669527143239975, 0.11143305897712708, -0.10277436673641205, 0.011268614791333675, 0.018400976434350014, 0.032582465559244156, 0.10808849334716797, 0.07466402649879456, -0.03622252121567726, -0.03848223388195038, 0.02092807926237583, 0.004798108246177435, -0.07149060070514679, -0.13188327848911285, 0.018201090395450592, 0.1368553787469864, 0.12489307671785355, 0.009020978584885597, 0.11894072592258453, 0.05762460082769394, -0.11368712037801743, 0.019724011421203613, 0.1085425317287445, 0.15497040748596191, 0.0024279661010950804, 0.005088874138891697, 0.06670472770929337, 0.13756488263607025, 0.2062591016292572, -0.06776367872953415, 0.10793224722146988, 0.10797746479511261, 0.0578957200050354, 0.04589249566197395, 0.12155094742774963, 0.011363130062818527, 0.10856350511312485, -0.1459043025970459, 0.1556219458580017, -0.06799500435590744, 0.002420753240585327, 0.10581338405609131], [-0.013594096526503563, 0.1645660102367401, -0.026462091132998466, -0.024259334430098534, 0.0254584401845932, -0.05621751770377159, -0.06691136956214905, 0.13335683941841125, -0.14641615748405457, -0.09940341860055923, -0.04798370227217674, -0.2190612554550171, -0.002858429914340377, -0.06768345832824707, -0.06842511147260666, -0.04399416223168373, 0.1230601966381073, 0.17488986253738403, 0.027175437659025192, -0.1127353236079216, -0.12978819012641907, 0.11734288930892944, -0.0440499447286129, -0.14597603678703308, -0.12137950211763382, -0.07390164583921432, -0.10188520699739456, 0.1361842006444931, 0.163774773478508, 0.0015880520222708583, 0.12972964346408844, -0.017406126484274864, -0.18239519000053406, -0.008294902741909027, 0.14589674770832062, 0.020013725385069847, -0.007014736998826265, 0.11251217126846313, -0.0891978070139885, 0.024918019771575928, 0.049291279166936874, 0.02610127255320549, 0.11563603579998016, 0.07048772275447845, -0.09825648367404938, -0.21493259072303772, 0.05607214197516441, 0.12337662279605865, 0.16959339380264282, 0.0840119868516922, -0.2055959701538086, 0.1373470276594162, 0.0006484112818725407, -0.060422446578741074, 0.03261163830757141, 0.03660570830106735, 0.04934399574995041, -0.1447845846414566, 0.0691925659775734, -0.12171459943056107, -0.08160495012998581, -0.09692753106355667, -0.041602905839681625, -0.024518275633454323, 0.05165286734700203, -0.11906522512435913, 0.007320663891732693, 0.08175266534090042, 0.012486448511481285, -0.14321252703666687, 0.080320343375206, 0.11691731214523315, -0.1921093463897705, 0.08628703653812408, -0.15021026134490967, 0.06695405393838882, 0.09258231520652771, 0.003222629427909851, 0.09953738003969193, 0.1540258526802063, -0.0075462451204657555, -0.10762137174606323, 0.11530417203903198, 0.0927932858467102, 0.021659811958670616, 0.07032590359449387, -0.07390280067920685, -0.14162537455558777, 0.03956717625260353, -0.16044114530086517, -0.00033963832538574934, 0.08281408995389938, -0.09364316612482071, -0.10727189481258392, -0.004497372545301914, -0.04392579197883606, -0.16310428082942963, -0.05380081757903099, -0.049903541803359985, 0.09080371260643005, 0.11872269213199615, 0.07249772548675537, -0.10391581803560257, 0.09790346026420593, -0.13667267560958862, 0.11326532065868378, 0.0312042236328125, 0.03396671637892723, -0.22179900109767914, -0.11857728660106659, -0.190757155418396, 0.0285195242613554, -0.10649032890796661, 0.18426692485809326, -0.046043287962675095, 0.13187208771705627, -0.011617985554039478, 0.09564173966646194, -0.16936978697776794, 0.02306816726922989, 0.02431328594684601, -0.028354983776807785, -0.10768936574459076, -0.11549721658229828, -0.09480216354131699, -0.09482507407665253, -0.06037812680006027, 0.07854382693767548], [-0.14022459089756012, 0.010939180850982666, -0.09882742911577225, -0.14864280819892883, -0.13849669694900513, -0.1923569142818451, -0.12050317972898483, -0.1003262847661972, -0.007359218318015337, 0.10897690057754517, 0.08809599280357361, -0.02706664614379406, 0.03957312926650047, 0.037172287702560425, -0.17274567484855652, 0.08419842272996902, -0.13791662454605103, -0.09561057388782501, 0.003902162192389369, 0.01229812577366829, -0.01984229125082493, 0.05581991374492645, 0.07494727522134781, 0.0745314359664917, 0.025463411584496498, -0.09931124001741409, 0.07957137376070023, 0.15674808621406555, -0.025816014036536217, -0.10987737774848938, 0.10175223648548126, -0.1806943267583847, 0.01013912446796894, 0.15747497975826263, 0.04674793779850006, -0.04626590758562088, -0.007591260597109795, -0.09440205991268158, 0.04721185937523842, 0.1145731508731842, -0.07645440846681595, 0.13097329437732697, 0.0945180281996727, -8.83484972291626e-05, -0.15302640199661255, -0.06269018352031708, -0.040867917239665985, -0.06899544596672058, 0.16860206425189972, -0.013229947537183762, -0.12910282611846924, 0.004345415160059929, -0.16659227013587952, -0.11254939436912537, -0.08249396830797195, -0.10805254429578781, 0.12900203466415405, -0.047679658979177475, 0.05162899196147919, 0.010158032178878784, -0.04929547384381294, -0.14635011553764343, -0.10231556743383408, -0.027115652337670326, -0.14769470691680908, 0.04172152280807495, 0.03387969359755516, -0.0672198235988617, -0.19383659958839417, 0.07810657471418381, 0.006963375955820084, 0.16642139852046967, -0.1841469705104828, 0.028491202741861343, 0.013479202054440975, -0.025532979518175125, -0.14062032103538513, 0.11067965626716614, -0.024074425920844078, 0.08966491371393204, -0.10348903387784958, 0.09065455198287964, 0.19302496314048767, 0.05510858818888664, -0.14457985758781433, -0.11243590712547302, 0.17491577565670013, -0.08886388689279556, 0.08270195126533508, -0.13712716102600098, -0.19791443645954132, 0.13255654275417328, 0.00546654686331749, -0.07212384790182114, 0.04867918789386749, 0.010718826204538345, 0.13900767266750336, 0.137947216629982, -0.07597044110298157, 0.12353277951478958, -0.06484786421060562, -0.0922490730881691, -0.15524420142173767, 0.07912065833806992, -0.16494271159172058, 0.12347368150949478, -0.04841514304280281, 0.1300937980413437, -0.16116540133953094, -0.08494044840335846, -0.016205312684178352, -0.107412189245224, 0.0026606495957821608, -0.00952429510653019, -0.0595218800008297, 0.008596766740083694, 0.08735517412424088, 0.11519918590784073, 0.09041058272123337, -0.18371745944023132, 0.13439339399337769, 0.046778321266174316, 0.02436358854174614, 0.067085400223732, 0.0006352043710649014, -0.18452808260917664, 0.11707192659378052, -0.018375694751739502], [0.04188968241214752, -0.005396691150963306, 0.12933960556983948, -0.1090029925107956, -0.12491688877344131, 0.034495241940021515, -0.07939910143613815, 0.10409721732139587, -0.14705926179885864, 0.0761241540312767, 0.11199131608009338, 0.04297296702861786, -0.15989042818546295, 0.07906586676836014, 0.10368236154317856, 0.08218174427747726, 0.14956265687942505, -0.043506503105163574, 0.05087307468056679, -0.06099318340420723, -0.11226117610931396, -0.14666490256786346, 0.09063143283128738, -0.18993520736694336, 0.013833777979016304, -0.11541726440191269, 0.07317753881216049, -0.1726836860179901, 0.16951942443847656, 0.02068183571100235, 0.17429500818252563, -0.09515969455242157, 0.12575355172157288, 0.06430824846029282, -0.05594340339303017, 0.07772421836853027, 0.040130916982889175, -0.1296631544828415, 0.14426755905151367, -0.12074050307273865, 0.10685112327337265, 0.024426905438303947, 0.05187003314495087, 0.20159681141376495, 0.024883901700377464, 0.05734678730368614, -0.13894902169704437, 0.04916958510875702, 0.08688518404960632, 0.106003038585186, 0.0985289067029953, 0.08907606452703476, 0.07226351648569107, -0.05421604961156845, 0.019360879436135292, -0.1493154913187027, 0.13255788385868073, 0.09167522192001343, 0.0708136186003685, 0.006773471832275391, -0.10011489689350128, 0.02222728542983532, -0.08455368876457214, 0.17932063341140747, 0.05328758433461189, -0.0659579336643219, -0.035110075026750565, -0.16695083677768707, 0.007863678969442844, 0.011969877406954765, -0.06375806033611298, -0.1494346559047699, -0.1124575138092041, 0.18649770319461823, -0.10733532160520554, -0.10163043439388275, 0.0425969734787941, 0.06512026488780975, -0.19305983185768127, -0.026356566697359085, 0.03537936508655548, -0.05898655205965042, 0.21517109870910645, 0.05911765620112419, -0.049092087894678116, 0.18367139995098114, -0.032514702528715134, -0.11054006218910217, 0.15916015207767487, 0.1128418892621994, -0.03331265598535538, 0.12341254949569702, 0.07654532790184021, 0.055145014077425, 0.0007008930551819503, -0.15678085386753082, 0.09641682356595993, 0.10788094997406006, -0.02928983047604561, -0.09764955192804337, 0.040468282997608185, 0.14802299439907074, 0.0926976129412651, 0.1451169103384018, -0.07496503740549088, 0.0624350868165493, -0.1540684998035431, -0.0934009850025177, 0.12548001110553741, 0.2121889740228653, 0.03843807801604271, 0.10366854071617126, -0.11738785356283188, 0.15903857350349426, 0.17349937558174133, 0.09876734018325806, -0.15947020053863525, -0.031065484508872032, -0.08105630427598953, 0.11038380116224289, -0.043605558574199677, -0.15967556834220886, -0.1370854526758194, -0.005350505001842976, 0.18221844732761383, -0.004375462420284748, -0.014577686786651611, 0.009699389338493347], [0.05008650943636894, -0.0512576587498188, 0.09063597023487091, 0.08627217262983322, -0.014461204409599304, -0.10347236692905426, 0.02562458999454975, 0.08349041640758514, -0.09538523107767105, 0.04642856493592262, 0.16929909586906433, -0.22513169050216675, 0.04971250146627426, -0.06867935508489609, -0.034697797149419785, -0.0017264782218262553, 0.08473579585552216, 0.18515393137931824, -0.06028902530670166, 0.17812441289424896, -0.001734830206260085, 0.0441216379404068, -0.04225795343518257, -0.11449803411960602, -0.21919658780097961, -0.1471903771162033, 0.14996756613254547, 0.012467202730476856, 0.16622771322727203, 0.036557506769895554, 0.0611453652381897, -0.005602705758064985, -0.10826797783374786, 0.0651252418756485, -0.08696011453866959, -0.11178752034902573, -0.14127086102962494, -0.12493821978569031, 0.11820782721042633, -0.10233552753925323, 0.05048622190952301, -0.047722380608320236, 0.017224464565515518, 0.0475102961063385, 0.08092954754829407, -0.22057443857192993, 0.1116061881184578, 0.009195899590849876, 0.19636307656764984, 0.07909394800662994, -0.07344833761453629, -0.10215122252702713, 0.07192336767911911, -0.2060493528842926, -0.1065438762307167, -0.21467483043670654, -0.04686557874083519, 0.01052077952772379, 0.015006013214588165, 0.138321191072464, -0.03236037492752075, 0.09705758839845657, 0.0049646589905023575, -0.11619339138269424, -0.18197478353977203, 0.028820931911468506, 0.11666703969240189, 0.1644543707370758, 0.08074361085891724, 0.10336076468229294, 0.1629476100206375, -0.05854149907827377, 0.05505455657839775, 0.08051016926765442, -0.1910054236650467, -0.03938058763742447, 0.05318629741668701, 0.14900478720664978, 0.11583203077316284, 0.14823772013187408, 0.18415939807891846, -0.09770713746547699, 0.0008412898750975728, 0.0190420038998127, -0.1657571941614151, -0.043684184551239014, -0.06367257237434387, -0.09849502891302109, -0.14469927549362183, -0.0435333177447319, -0.23817968368530273, -0.11313945055007935, 0.17262765765190125, -0.17869238555431366, -0.005153317004442215, -0.11117497831583023, -0.1813173145055771, -0.011686326935887337, -0.1251356601715088, 0.13908350467681885, 0.12255065143108368, 0.05850042775273323, -0.12599797546863556, -0.047998521476984024, 0.04961293935775757, 0.0036739774513989687, -0.1095416396856308, 0.07567503303289413, -0.2049398571252823, -0.1497095227241516, -0.11036606132984161, -0.1156613901257515, -0.17307737469673157, 0.14689871668815613, -0.15544003248214722, -0.00490809278562665, 0.0172377098351717, -0.08999134600162506, -0.139047771692276, -0.09581204503774643, -0.06441138684749603, -0.0038430746644735336, -0.06492619961500168, 0.06434953957796097, -0.10084430873394012, -0.08385225385427475, -0.018114835023880005, 0.13950255513191223], [0.10845731943845749, 0.17472727596759796, -0.00349775655195117, -0.06817443668842316, -0.08272805064916611, -0.1275796890258789, 0.11609911918640137, -0.03524090349674225, -0.09959369897842407, -0.08860527724027634, -0.13309724628925323, -0.08138453215360641, 0.12996916472911835, -0.025290165096521378, 0.011928379535675049, -0.053412798792123795, -0.008566111326217651, 0.11892674118280411, 0.09980921447277069, -0.08035501837730408, 0.14636564254760742, 0.11267966032028198, 0.08521944284439087, 0.061212971806526184, -0.14836186170578003, 0.15038596093654633, 0.03557487577199936, -0.09264903515577316, 0.03094884380698204, -0.006102352403104305, 0.00019429958774708211, -0.10345598310232162, -0.035178620368242264, -0.04979147017002106, -0.0028845316264778376, 0.06091500073671341, 0.0756332278251648, -0.045554518699645996, -0.11790861189365387, 0.12008446455001831, 0.0836392492055893, -0.11563773453235626, 0.10362647473812103, 0.13590455055236816, -0.16742339730262756, -0.09642457216978073, 0.006789480801671743, 0.06508594751358032, -0.10738824307918549, -0.08844711631536484, 0.008012398146092892, 0.061633430421352386, -0.12296291440725327, -0.1465848833322525, -0.045279551297426224, -0.0690622553229332, 0.1601264327764511, -0.20581325888633728, -0.09028002619743347, -0.07963008433580399, 0.037338390946388245, -0.1005239486694336, -0.13031677901744843, -0.07557868957519531, 0.044886909425258636, 0.03825543820858002, 0.06856062263250351, -0.06811316311359406, 0.03427395969629288, -0.15542180836200714, 0.15658970177173615, 0.13790859282016754, -0.055077604949474335, 0.06079113855957985, -0.12084998935461044, -0.126636803150177, -0.0688072144985199, -0.14210627973079681, 0.10456093400716782, -0.028048552572727203, 0.06485364586114883, 0.13931375741958618, 0.16292987763881683, -0.1848033219575882, -0.18141433596611023, 0.04925073683261871, 0.12296082824468613, 0.1037830039858818, -0.17152661085128784, -0.15153561532497406, 0.02561725489795208, -0.010126006789505482, 0.0064172567799687386, -0.018825236707925797, -0.06455112993717194, 0.09774395078420639, 0.1484309434890747, -0.07940763235092163, -0.02690940722823143, 0.12515869736671448, -0.023622194305062294, 0.10694937407970428, 0.10317940264940262, -0.0658993124961853, -0.18735718727111816, 0.0015618638135492802, -0.0010272387880831957, -0.11519823968410492, -0.07695865631103516, 0.037740349769592285, 0.09028887003660202, -0.07327514886856079, 0.08847490698099136, 0.13010533154010773, -0.1499100774526596, -0.037310391664505005, 0.039761416614055634, 0.15928199887275696, -0.015367722138762474, -0.030879953876137733, -0.018629267811775208, 0.0792253166437149, 0.060983285307884216, 0.04903829097747803, 0.0009953341213986278, 0.05061555653810501, 0.029317647218704224, 0.1370023488998413], [-0.0484418049454689, -0.041029397398233414, 0.12254472821950912, -0.1351751685142517, 0.13581350445747375, 0.0998498871922493, 0.08106235414743423, 0.13657766580581665, 0.056527458131313324, 0.08749160170555115, 0.1295965611934662, 0.13752423226833344, -0.09742928296327591, -0.021301206201314926, 0.06497113406658173, -0.08681119978427887, 0.09149698913097382, 0.03653930872678757, -0.05565577372908592, -0.031866561621427536, 0.019089126959443092, -0.06320368498563766, 0.08877768367528915, 0.013411346822977066, -0.04944320768117905, 0.14331549406051636, 0.10205666720867157, 0.14380042254924774, 0.08406362682580948, 0.025431497022509575, 0.05619015917181969, 0.035571422427892685, 0.16792555153369904, 0.06391642242670059, 0.050669748336076736, -0.08717965334653854, -0.13650164008140564, 0.08156469464302063, 0.0849262997508049, 0.05819237232208252, -0.08246930688619614, 0.1668543666601181, 0.0959516167640686, 0.1104205995798111, -0.07593286037445068, -0.032867465168237686, -0.0678122416138649, -0.1590588539838791, -0.08322001248598099, 0.2065219283103943, 0.18643975257873535, -0.1331678330898285, -0.12939098477363586, -0.019099198281764984, 0.13604532182216644, -0.008251501247286797, -0.05058295652270317, 0.006466814316809177, -0.05414292588829994, 0.11317881941795349, 0.0368872731924057, 0.12111716717481613, -0.17146386206150055, 0.047792207449674606, -0.005768768955022097, -0.04397580027580261, -0.05965884029865265, 0.034549832344055176, 0.02404874563217163, -0.0557158961892128, -0.18312913179397583, 0.08645163476467133, 0.02285720780491829, 0.03090435080230236, 0.10850799828767776, 0.1652742475271225, 0.15296383202075958, -0.011545538902282715, -0.18189989030361176, 0.03196502849459648, 0.09124457836151123, 0.0011082887649536133, 0.015499659813940525, 0.15223607420921326, -0.05815691128373146, -0.06544666737318039, -0.1635248064994812, 0.040429577231407166, -0.011085261590778828, -0.04077697545289993, 0.16832831501960754, 0.11259283870458603, 0.08660810440778732, 0.025507405400276184, 0.010731048882007599, -0.00417374586686492, 0.028005393221974373, 0.11145056784152985, 0.13477331399917603, -0.09926477819681168, -0.10604163259267807, 0.010338757187128067, 0.1012774333357811, 0.07093484699726105, -0.04490741714835167, 0.20949840545654297, 0.06711186468601227, 0.07694751024246216, 0.0010919026099145412, 0.17559975385665894, 0.2060324251651764, 0.21654318273067474, -0.13110677897930145, 0.08126292377710342, 0.21115617454051971, 0.16225580871105194, -0.1866493672132492, -0.037706147879362106, -0.13462750613689423, 0.1707027703523636, 0.1381646692752838, -0.08779198676347733, 0.0701456144452095, 0.04744165018200874, 0.057543251663446426, -0.06221058592200279, 0.10377371311187744, -0.013440966606140137], [-0.164279967546463, 0.10066653788089752, 0.11763613671064377, -0.05548873543739319, 0.0028916597366333008, -0.2087153047323227, 0.08135101199150085, 0.028398871421813965, 0.09241563826799393, -0.02315327525138855, -0.07681538909673691, -0.18854378163814545, 0.028672777116298676, 0.04174339398741722, 0.002363229403272271, 0.18868881464004517, 0.15062320232391357, -0.12946867942810059, 0.1660166084766388, 0.11421144753694534, 0.09727486222982407, 0.10625961422920227, -0.02941235713660717, -0.07559787482023239, 0.02745055966079235, -0.00748456921428442, -0.10657300800085068, 0.06164637207984924, 0.10616195946931839, -0.02468348853290081, 0.06753700971603394, 0.048437897115945816, -0.07737530767917633, 0.10652895271778107, 0.09779154509305954, -0.00928820762783289, -0.13709543645381927, -0.03763941675424576, -0.011549250222742558, 0.045293763279914856, 0.006701619829982519, 0.07545885443687439, 0.10475050657987595, 0.04149942472577095, -0.14082227647304535, -0.007072723936289549, 0.19694015383720398, 0.1778935045003891, -0.09546182304620743, -0.17523711919784546, -0.08999591320753098, 0.059153083711862564, -0.13227471709251404, 0.0849323570728302, -0.1428886353969574, 0.08654896914958954, -0.0517394132912159, -0.18395386636257172, -0.17740397155284882, -0.03561888635158539, 0.1105586439371109, -0.1314787119626999, -0.016347689554095268, -0.0987527072429657, -0.0612398236989975, -0.05041515827178955, 0.1583167016506195, 0.10236063599586487, -0.07640118896961212, -0.05940110608935356, 0.16361114382743835, 0.0862392783164978, -0.08354310691356659, -0.13733427226543427, -0.06285316497087479, 0.06576046347618103, 0.10940754413604736, 0.14738261699676514, 0.17817911505699158, 0.061458438634872437, -0.047914374619722366, -0.13502731919288635, 0.0010554654290899634, -0.2015262097120285, 0.04415103420615196, 0.02099994570016861, 0.14434874057769775, -0.024288969114422798, -0.1433294117450714, 0.048865508288145065, 0.03179318085312843, -0.03967326134443283, 0.04839164391160011, -0.18907909095287323, 0.05266241356730461, -0.03764132782816887, -0.16768476366996765, -0.03118407540023327, -0.18693876266479492, 0.13963770866394043, 0.11128843575716019, 0.12683716416358948, -0.2018986940383911, -0.1551070362329483, -0.10873658210039139, -0.06850995868444443, -0.04504593089222908, -0.030740227550268173, -0.147830992937088, -0.10288470983505249, 0.04972291737794876, 0.09080877900123596, 0.06434337794780731, -0.0705334022641182, -0.05226830765604973, -0.14313562214374542, 0.06613118946552277, 0.049553580582141876, -0.10518962889909744, -0.16772429645061493, 0.13547083735466003, -0.058162566274404526, 0.10793411731719971, 0.13492530584335327, -0.11815845221281052, -0.15638335049152374, 0.02379526197910309, 0.04303893446922302], [0.03451511636376381, 0.06464128196239471, -0.05886203423142433, -0.16086269915103912, 0.06989045441150665, 0.024939794093370438, -0.018271248787641525, -0.11531317234039307, 0.08714764565229416, 0.06681019067764282, -0.027560308575630188, 0.02467283047735691, -0.10782834142446518, 0.014206205494701862, -0.13426585495471954, 0.04726746678352356, 0.04839198291301727, 0.042614925652742386, -0.1493169665336609, -0.09416759759187698, 0.051135726273059845, -0.08687256276607513, -0.012090496718883514, -0.1731259971857071, -0.16544921696186066, 0.0362924262881279, -0.00011637002171482891, 0.12015213817358017, 0.151980921626091, 0.031195612624287605, -0.08829393237829208, -0.088023841381073, -0.00795760378241539, -0.10081774741411209, 0.12079814821481705, -0.14029482007026672, 0.007889809086918831, 0.15335586667060852, 0.09325647354125977, -0.10328177362680435, -0.0022160576190799475, -0.051125138998031616, -0.04064188152551651, -0.018504014238715172, 0.014621716924011707, 0.06317945569753647, 0.05047242343425751, 0.039958760142326355, -0.09711265563964844, 0.21287384629249573, 0.07462179660797119, -0.09467657655477524, -0.040222298353910446, 0.009262342005968094, -0.06801013648509979, 0.07686668634414673, 0.14055664837360382, -0.10972840338945389, 0.01116904802620411, 0.1096712052822113, -0.14281810820102692, -0.12377485632896423, -0.08872158080339432, -0.04608142003417015, -0.16054026782512665, -0.05237709730863571, 0.12374855577945709, 0.059165164828300476, -0.014791504479944706, 0.1544492542743683, 0.0036968982312828302, -0.015266931615769863, 0.002311010379344225, 0.10158498585224152, 0.09412965178489685, 0.05969442054629326, 0.11881271004676819, 0.0777885913848877, -0.13888108730316162, -0.010669831186532974, 0.06328857690095901, 0.021844491362571716, -0.0035033810418099165, 0.007290659938007593, 0.05935679003596306, -0.029433952644467354, 0.14383035898208618, 0.08711086213588715, -0.1754147708415985, -0.14747802913188934, 0.004341769963502884, 0.09515852481126785, 0.07379762828350067, -0.15314121544361115, 0.06709597259759903, -0.1625627875328064, -0.040413301438093185, 0.12287039309740067, -0.034054774791002274, 0.02107231318950653, 0.1250971257686615, 0.17881959676742554, 0.06462350487709045, 0.10746775567531586, -0.014400117099285126, 0.10019547492265701, -0.11326149106025696, 0.07837321609258652, 0.1176677793264389, 0.00953778624534607, 0.11728398501873016, -0.0928967222571373, -0.12592090666294098, 0.20863059163093567, -0.0903252512216568, 0.12988369166851044, 0.04390173777937889, 0.121063232421875, 0.025715842843055725, -0.016815215349197388, -0.05217057466506958, -0.1405588984489441, -0.20253047347068787, -0.14538559317588806, 0.1649237424135208, -0.043152015656232834, 0.0065031498670578, 0.07810984551906586], [-0.06547550857067108, -0.13298219442367554, 0.07147236913442612, 0.03044924885034561, 0.011587858200073242, -0.09512758255004883, -7.90656340541318e-05, -0.040854312479496, -0.1347934752702713, 0.03396230190992355, -0.12458131462335587, 0.1422657072544098, 0.061462193727493286, 0.0720977857708931, 0.15109170973300934, -0.12321054190397263, -0.1476273089647293, -0.1231711134314537, -0.03534866124391556, -0.07998541742563248, -0.0521816723048687, 0.02826578915119171, 0.23251140117645264, 0.08709228783845901, 0.08527711033821106, 0.03178948909044266, 0.038588009774684906, -0.024009238928556442, -0.10728222876787186, -0.01091859769076109, -0.04229918122291565, -0.06921722739934921, -0.1073441356420517, 0.12490351498126984, -0.1235479936003685, -0.11848140507936478, -0.05558769777417183, 0.057894304394721985, -0.07954063266515732, 0.12112295627593994, 0.136835515499115, -0.07861705869436264, 0.023564843460917473, -0.07669516652822495, -0.08108797669410706, 0.07736209034919739, -0.16021603345870972, -0.13442747294902802, -0.14029332995414734, 0.048949483782052994, 0.04886186122894287, -0.14976702630519867, 0.08984505385160446, 0.078545942902565, -0.010445146821439266, -0.06998366117477417, 0.11985508352518082, 0.18433606624603271, 0.08981121331453323, 0.017826855182647705, -0.029091384261846542, -0.044779323041439056, -0.05336889252066612, 0.19650854170322418, 0.08872280269861221, 0.016995802521705627, -0.1021493673324585, 0.06429596990346909, -0.029288258403539658, -0.038176219910383224, -0.19585205614566803, -0.17761453986167908, -0.019840575754642487, 0.20742958784103394, 0.17900153994560242, 0.17719429731369019, 0.14592458307743073, -0.12610700726509094, -0.1463647186756134, -0.0009226222173310816, -0.19708235561847687, -0.10383802652359009, 0.18998657166957855, 0.09239132702350616, 0.17455105483531952, -0.025405071675777435, -0.137137308716774, 0.15561950206756592, 0.1679326295852661, -0.041202254593372345, 0.10773029923439026, 0.0007592583424411714, -0.07541728019714355, -0.06613771617412567, -0.08277273178100586, -0.06482115387916565, 0.1692890077829361, -0.11703100055456161, 0.01949327625334263, 0.1278800219297409, -0.06799052655696869, 0.06473197042942047, 0.0941191166639328, -0.02237238734960556, 0.0784599557518959, 0.1168404370546341, 0.11994927376508713, 0.046294476836919785, 0.010533181950449944, 0.18448743224143982, 0.22447963058948517, 0.16039228439331055, -0.12651905417442322, 0.08347619324922562, 0.10878237336874008, -0.0877668634057045, 0.018399447202682495, -0.06394614279270172, -0.12069325149059296, -0.02851308137178421, -0.0912250205874443, -0.043675705790519714, -0.08534570783376694, 0.054278742522001266, 0.04063237085938454, -0.017854541540145874, 0.11178043484687805, 0.025957748293876648], [-0.04756131023168564, 0.09625028818845749, 0.00010414962889626622, 0.05782994627952576, 0.013366252183914185, -0.21481309831142426, 0.0588504858314991, 0.0891944169998169, -0.12646299600601196, -0.09824485331773758, -0.1549309492111206, -0.04503349959850311, 0.03030988574028015, 0.08607117831707001, -0.02710222825407982, -0.03625668212771416, 0.05690760910511017, -0.039701927453279495, -0.044860873371362686, 0.1081039309501648, -0.10799090564250946, 0.031130805611610413, -0.014910598285496235, 0.12467832118272781, 0.033022597432136536, 0.1431226134300232, 0.1346949189901352, 0.060385264456272125, 0.027579814195632935, 0.1823054701089859, -0.03843840956687927, 0.08890362083911896, -0.18665271997451782, -0.05663716793060303, 0.09825419634580612, 0.06203515827655792, -0.036596640944480896, 0.09638464450836182, 0.08872932195663452, -0.13668286800384521, -0.019720736891031265, -0.06294696033000946, 0.07244041562080383, -0.06909607350826263, -0.060114480555057526, 0.0002197151188738644, 0.04138023778796196, 0.012943200767040253, -0.13058991730213165, -0.20826490223407745, -0.19959421455860138, 0.11762190610170364, -0.11363333463668823, -0.029446743428707123, -0.11672782152891159, -0.005307016894221306, 0.11192119866609573, -0.12604424357414246, 0.10621672868728638, 0.0803748369216919, -0.10688535124063492, -0.07130255550146103, -0.03056883066892624, 0.047404177486896515, -0.09519882500171661, -0.12044097483158112, 0.057922329753637314, -0.08792939782142639, 0.06129397079348564, -0.03184274956583977, 0.03581790626049042, -0.12910819053649902, -0.08922620862722397, -0.06832468509674072, -0.07848250865936279, 0.017979733645915985, -0.20383787155151367, 0.10798114538192749, 0.15682527422904968, 0.048923004418611526, 0.175548255443573, 0.13027682900428772, 0.07627033442258835, 0.05127508193254471, -0.1522514671087265, -0.0652364119887352, -0.022352047264575958, -0.14462324976921082, -0.19409337639808655, -0.1925458014011383, 0.06014270335435867, 0.030104227364063263, 0.022143935784697533, 0.0006497381255030632, 0.1697232872247696, 0.1804199069738388, 0.08076890558004379, -0.051794253289699554, -0.19677399098873138, 0.07866798341274261, -0.12494198232889175, -0.12862643599510193, 0.002699579345062375, -0.004400935955345631, 0.08883865177631378, 0.13027720153331757, 0.09050814807415009, 0.039827991276979446, -0.13087314367294312, -0.07268306612968445, 0.11516184359788895, 0.08262956142425537, 0.0526202917098999, 0.12491597980260849, -0.21036706864833832, -0.029706884175539017, 0.12738998234272003, -0.005350245628505945, -0.03173237666487694, -0.012376992963254452, 0.14072725176811218, 0.08651763200759888, -0.03906073421239853, -0.118558369576931, -0.0847393348813057, -0.1848192662000656, 0.07699504494667053, -0.14489519596099854], [0.06727662682533264, -0.08663750439882278, 0.013832565397024155, -0.09354962408542633, 0.11104124784469604, 0.10812519490718842, -0.10073071718215942, 0.07499949634075165, 0.09074704349040985, 0.0543496236205101, 0.016057435423135757, 0.012761379592120647, 0.1396133154630661, 0.10595261305570602, 0.01390533521771431, -0.11504475027322769, 0.10707730054855347, -0.09813620895147324, -0.16541248559951782, 0.1181204691529274, -0.003123756032437086, 0.041762128472328186, -0.07540799677371979, -0.15138426423072815, -0.1650562286376953, 0.07226674258708954, 0.08714087307453156, -0.03237314894795418, -0.04164407402276993, 0.15271562337875366, -0.02122604288160801, 0.07704568654298782, 0.021161803975701332, -0.1294306069612503, -0.13523775339126587, 0.08146394044160843, 0.02808476611971855, 0.07917079329490662, 0.17185574769973755, -0.04874354600906372, -0.03438159450888634, 0.16318194568157196, 0.031336136162281036, 0.08348572254180908, -0.043082837015390396, -0.09748990088701248, -0.16782695055007935, 0.1267976015806198, 0.032678429037332535, -0.09963078796863556, -0.043645020574331284, -0.1013885959982872, 0.06467251479625702, -0.16138815879821777, -0.1483384370803833, -0.025026043877005577, 0.1216541975736618, -0.20249488949775696, 0.04868193715810776, 0.08808022737503052, 0.06073220446705818, -0.12794333696365356, -0.00755418511107564, 0.09536503255367279, -0.15118469297885895, 0.10817188024520874, -0.10521195083856583, -0.12464648485183716, 0.056228991597890854, 0.05697882920503616, -0.015405233018100262, -0.09944993257522583, -0.05331116542220116, 0.06885164231061935, 0.10133326053619385, -0.12909471988677979, -0.15903198719024658, 0.13898980617523193, 0.130435511469841, 0.06823500990867615, 0.10069023817777634, -0.06337668001651764, 0.10962791740894318, 0.03823840245604515, 0.11600147187709808, -0.039558105170726776, -0.013515938073396683, 0.09502377361059189, 0.04863845184445381, -0.138116717338562, -0.20271418988704681, -0.029873168095946312, 0.14284662902355194, -0.06273186206817627, -0.05561260133981705, -0.009866802021861076, 0.08349151164293289, 0.1136133000254631, 0.08535325527191162, 0.13430167734622955, 0.0859261304140091, 0.12862417101860046, -0.01708534173667431, 0.0008803214877843857, -0.01837906986474991, -0.031606514006853104, -0.009807635098695755, -0.1324034035205841, 0.10369112342596054, 0.024394256994128227, 0.10048124194145203, -0.05081754922866821, 0.050456106662750244, 0.09817608445882797, 0.10885363817214966, 0.01625538244843483, 0.12742607295513153, -0.10334521532058716, -0.1856326311826706, -0.05592881143093109, -0.0870441272854805, -0.09913180768489838, 0.09166335314512253, -0.13651622831821442, -0.07127784192562103, 0.08054634183645248, 0.049847617745399475, 0.02451251447200775], [0.04751022160053253, -0.1618748903274536, 0.012056849896907806, -0.0030953267123550177, 0.1218273937702179, -0.08946974575519562, -0.14624615013599396, -0.06347748637199402, -0.02907584048807621, -0.10042746365070343, 0.07736116647720337, 0.1646556705236435, -0.1173022910952568, 0.06864950060844421, 0.13367393612861633, 0.0059364368207752705, 0.030256569385528564, 0.16909310221672058, 0.01570800319314003, -0.09900647401809692, 0.011809693649411201, 0.10066211223602295, 0.10440600663423538, -0.07631301134824753, 0.0628833919763565, -0.15819425880908966, 0.008372325450181961, -0.1642589420080185, -0.07660041004419327, -0.018718315288424492, -0.057906199246644974, -0.05585575848817825, -0.05608033761382103, 0.06265861541032791, -0.11431007087230682, 0.04948798567056656, 0.014743356965482235, -0.0734378919005394, 0.14237017929553986, -0.10240980237722397, 0.19052666425704956, 0.13959050178527832, 0.16672204434871674, -0.03816062957048416, 0.14892910420894623, 0.03308890387415886, -0.04512252286076546, 0.08227989822626114, 0.13873256742954254, 0.12444520741701126, -0.060430869460105896, -0.04855385795235634, 0.1697763353586197, 0.03023514524102211, 0.2086559683084488, 0.10070798546075821, 0.07222740352153778, -0.030231056734919548, -0.004733347799628973, -0.024552538990974426, 0.06381236761808395, 0.08823172748088837, 0.078219935297966, -0.056522186845541, 0.13950620591640472, 0.1395653486251831, 0.045023463666439056, -0.16668540239334106, -0.12106145918369293, 0.14625583589076996, -0.12841928005218506, -0.17227506637573242, -0.11072555929422379, 0.07949189096689224, 0.04548254609107971, -0.03228877857327461, 0.09218486398458481, 0.15080082416534424, 0.04049178585410118, 0.0873405709862709, -0.2013169676065445, -0.04705481976270676, -0.018348349258303642, 0.19191992282867432, 0.10514621436595917, 0.08120200783014297, -0.10959719121456146, 0.034722696989774704, -0.0759720504283905, 0.06030482053756714, 0.1251029372215271, -0.09602465480566025, -0.024729527533054352, -0.05176244676113129, 0.026673445478081703, -0.1627497524023056, 0.022739065811038017, 0.1438104659318924, 0.04241335019469261, -0.09422732889652252, 0.14045552909374237, 0.1947212815284729, 0.031281452625989914, 0.06493636220693588, 0.20502762496471405, 0.05318127200007439, 0.01746210642158985, 0.15472960472106934, 0.04844386875629425, -0.005340753123164177, 0.15381468832492828, 0.15664896368980408, -0.07630209624767303, 0.1882576197385788, 0.011065095663070679, 0.08070338517427444, -0.10701748728752136, -0.07019323855638504, -0.03793732449412346, 0.054789815098047256, -0.12297320365905762, -0.0002449233434163034, -0.10206294804811478, -0.14346766471862793, 0.21648845076560974, 0.17129667103290558, -0.13850021362304688, 0.09760743379592896], [-0.06519405543804169, -0.05231215059757233, 0.07629712671041489, 0.07945641130208969, 0.141859769821167, -0.08420254290103912, 0.09094362705945969, -0.0067551881074905396, -0.13725018501281738, 0.10274165123701096, 0.004035118967294693, -0.027783703058958054, 0.013632952235639095, 0.04126475006341934, -0.1341468244791031, 0.13943491876125336, -0.06127454340457916, 0.021715998649597168, 0.08609865605831146, 0.07970495522022247, -0.08354179561138153, -0.005061045289039612, -0.1519245058298111, 0.1377316564321518, -0.01559455692768097, 0.11382836103439331, 0.10444992035627365, 0.02773488685488701, -0.11709967255592346, 0.13893674314022064, 0.04365810751914978, 0.11264956742525101, -0.17829261720180511, 0.011953260749578476, -0.13640503585338593, 0.11119026690721512, -0.10424143075942993, 0.13583722710609436, 0.05382322892546654, 0.057233333587646484, -0.13179941475391388, -0.011751373298466206, 0.0886877253651619, -0.04467257484793663, 0.05813491344451904, -0.16939641535282135, -0.0915389209985733, -0.07456792145967484, -0.11303691565990448, -0.08302392810583115, -0.1151844933629036, -0.05728171393275261, 0.007453293539583683, -0.17115913331508636, -0.00435377424582839, -0.0870562270283699, 0.03486030176281929, -0.08887717127799988, 0.07125398516654968, -0.13868746161460876, 0.024313079193234444, -0.10516860336065292, -0.06330704689025879, -0.08778108656406403, -0.0098628681153059, 0.12753793597221375, 0.050072528421878815, -0.09947464615106583, -0.06885084509849548, -0.10894971340894699, -0.07599787414073944, -0.03343365713953972, -0.07185201346874237, 0.10201256722211838, -0.2074495255947113, -0.04845265671610832, -0.16678005456924438, 0.05432148277759552, -0.03068697452545166, 0.1291360855102539, 0.20382069051265717, -0.12199001014232635, -0.024155473336577415, -0.10231437534093857, 0.0863984227180481, -0.12652768194675446, 0.0980972945690155, -0.14804644882678986, -0.20537668466567993, -0.1351659595966339, -0.23894210159778595, 0.1415674239397049, 0.0314166396856308, -0.0060445088893175125, 0.07166338711977005, 0.17050501704216003, 0.022314585745334625, -0.15615786612033844, -0.21742795407772064, -0.12888820469379425, 0.03177648410201073, -0.06907908618450165, -0.20105582475662231, 0.08520342409610748, -0.02172905206680298, 0.15621428191661835, 0.1453147828578949, -0.050668682903051376, 0.05909253656864166, -0.08981946855783463, -0.11531248688697815, 0.11492249369621277, 0.0801418274641037, 0.01244615949690342, -0.03914453461766243, 0.1360347867012024, 0.03764938563108444, 0.09273291379213333, 0.09936495870351791, 0.06968031078577042, 0.08106395602226257, -0.06666696816682816, 0.048838548362255096, 0.08005646616220474, -0.02402697131037712, -0.08442887663841248, -0.013307616114616394, 0.11336800456047058], [0.032436177134513855, 0.131533682346344, -0.09738124161958694, -0.11537756025791168, -0.03117789328098297, -0.08440130949020386, 0.0087153110653162, 0.1072026789188385, 0.07707774639129639, 0.00022800936130806804, 0.1300194263458252, -0.20688584446907043, 0.03562239184975624, -0.03651103004813194, -0.08060625195503235, 0.07375980168581009, -0.015419691801071167, 0.0022965590469539165, -0.08880601078271866, -0.06255093961954117, 0.11365004628896713, 0.12410014867782593, -0.07296205312013626, -0.09253192692995071, -0.07198983430862427, -0.11448304355144501, 0.08802567422389984, -0.007631691638380289, 0.15143202245235443, 0.06513863056898117, 0.07575684040784836, -0.14339414238929749, -0.18425951898097992, -0.06730034202337265, -0.09017228335142136, 0.082637719810009, -0.16508573293685913, -0.08279785513877869, 0.13698861002922058, -0.01625944674015045, -0.0241861455142498, 0.009397083893418312, 0.007018902339041233, 0.06277778744697571, -0.1270836591720581, -0.1155855655670166, 0.05117156356573105, -0.07080753892660141, -0.13701723515987396, -0.0909409373998642, -0.021204497665166855, 0.06157306954264641, -0.08621910214424133, -0.09912418574094772, -0.09438291937112808, -0.0406661182641983, -0.060685835778713226, 0.016393959522247314, -0.05831814184784889, 0.08023463189601898, -0.15950556099414825, -0.09345632046461105, -0.060502711683511734, -0.18601448833942413, 0.04502793028950691, 0.09677565097808838, 0.09608969837427139, -0.06885497272014618, -0.18856757879257202, 0.053675878793001175, 0.14966125786304474, 0.09125754982233047, -0.11752171069383621, -0.06202702969312668, 0.04606478288769722, 0.030887333676218987, 0.06766731292009354, 0.07121182978153229, 0.04999081417918205, -0.018933702260255814, 0.059990428388118744, 0.1235206127166748, -0.12546466290950775, -0.13793142139911652, -0.14503826200962067, 0.07122666388750076, 0.1099550798535347, -0.01601194031536579, 0.007294013164937496, -0.11550091952085495, -0.20801155269145966, 0.11091142892837524, -0.002307081827893853, -0.21692289412021637, -0.04709090664982796, -0.150003582239151, 0.006379215512424707, -0.033133357763290405, -0.08173636347055435, -0.07941553741693497, -0.0639311671257019, -0.09683985263109207, -0.08802173286676407, -0.08074032515287399, 0.09892895072698593, -0.0014254834968596697, 0.016008129343390465, -0.03188745677471161, 0.1189330592751503, -0.18444590270519257, 0.08834242820739746, 0.05685039982199669, -0.13553673028945923, -0.032765019685029984, -0.05635829642415047, 0.01744508184492588, 0.06448063999414444, -0.04623502120375633, -0.013162081129848957, -0.1163320317864418, 0.11919692158699036, -0.009878144599497318, -0.020104100927710533, -0.03643406555056572, -0.022004054859280586, -0.00912199541926384, -0.0846371129155159, -0.08750052005052567], [-0.055879559367895126, -0.11228702962398529, -0.15389975905418396, 0.10982629656791687, 0.08358514308929443, 0.19790485501289368, 0.1266290694475174, 0.034112393856048584, 0.08306990563869476, -0.10327782481908798, 0.1492881327867508, 0.18444755673408508, 0.05326598510146141, -0.16186530888080597, -0.15743693709373474, -0.10435547679662704, -0.024908050894737244, 0.025480967015028, -0.0986880287528038, -0.052384234964847565, 0.10158479958772659, -0.03904063254594803, 0.04260624200105667, -0.002458432922139764, -0.0705268457531929, -0.08449193090200424, -0.13606348633766174, -0.12435939162969589, -0.08101941645145416, 0.07563174515962601, 0.13610415160655975, -0.18193566799163818, 0.1268940418958664, -0.1580784022808075, -0.10762467980384827, 0.0867934376001358, 0.01807887852191925, 0.004100129008293152, 0.09571395814418793, -0.13244664669036865, 0.11405160278081894, 0.1381155252456665, 0.014085537753999233, 0.19920462369918823, -0.055640850216150284, 0.03294545039534569, -0.09982263296842575, -0.0756530836224556, -0.01106809452176094, -0.008090772666037083, -0.008408399298787117, 0.06070493161678314, -0.09746970236301422, 0.12402117997407913, 0.15456272661685944, 0.02982160821557045, 0.03956074267625809, -0.032382089644670486, 0.07768841832876205, -0.08397763967514038, 0.08928114920854568, 0.10325594246387482, -0.19759699702262878, 0.21013793349266052, -0.10782792419195175, -0.14607714116573334, 0.14343376457691193, -0.14513550698757172, 0.08202318847179413, -0.05144345387816429, 0.0035757683217525482, 0.09573080390691757, 0.04471940919756889, 0.20149366557598114, 0.03265675902366638, 0.11948166787624359, 0.11920098215341568, 0.01762901246547699, -0.07714346051216125, 0.11411572247743607, 0.03391805663704872, 0.08246871829032898, 0.21401187777519226, 0.07327250391244888, 0.018493978306651115, 0.0254348274320364, 0.04414735734462738, -0.13669869303703308, 0.15357783436775208, -0.05426977947354317, 0.05570920929312706, -0.05522678792476654, -0.08033503592014313, 0.09471244364976883, -0.02284042350947857, 0.08269382268190384, 0.007334960158914328, 0.13694313168525696, 0.079255610704422, 0.08580854535102844, 0.025120627135038376, -0.015727553516626358, -0.038410354405641556, 0.0834842324256897, 0.08700743317604065, 0.15962140262126923, 0.12310617417097092, -0.03780107945203781, -0.10332581400871277, -0.003973702900111675, 0.01613781414926052, 0.17268341779708862, 0.051954008638858795, 0.15438498556613922, 0.17995533347129822, 0.09145791828632355, -0.009988537058234215, -0.03971611335873604, -0.06310774385929108, 0.16132700443267822, -0.12300188839435577, -0.15296058356761932, -0.05106249824166298, -0.1223611980676651, -0.04685244336724281, -0.061717912554740906, 0.06196790933609009, -0.012858882546424866], [0.0324862115085125, 0.056925080716609955, 0.09218446910381317, 0.0975380688905716, 0.05452902615070343, 0.04749825596809387, 0.03593236953020096, -0.0046020448207855225, -0.06687164306640625, -0.024614635854959488, -0.14428715407848358, 0.04536807909607887, -0.10007401555776596, -0.07251350581645966, 0.06517414003610611, 0.04790032282471657, 0.10854622721672058, -0.07438942044973373, 0.13946306705474854, 0.1517743021249771, 0.059776902198791504, 0.024066820740699768, 0.06389885395765305, 0.051437415182590485, 0.07526052743196487, 0.10585040599107742, 0.14458850026130676, 0.13997851312160492, 0.16313740611076355, -0.10627055913209915, -0.08063466846942902, -0.08170803636312485, -0.21485158801078796, 0.1118122935295105, -0.08089694380760193, -0.11532580107450485, 0.04648498445749283, -0.0962398499250412, 0.09672394394874573, 0.011094644665718079, 0.14086145162582397, -0.1848711371421814, -0.004425378516316414, -0.09387063980102539, -0.12301845103502274, 0.09508956223726273, 0.09771162271499634, -0.010348143056035042, 0.15572555363178253, 0.008096875622868538, -0.2037038505077362, -0.05623031035065651, -0.14031367003917694, -0.17847862839698792, -0.1548103392124176, -0.10129602253437042, 0.1926455795764923, -0.01966373808681965, 0.10939270257949829, 0.14921456575393677, -0.16006556153297424, -0.11008530110120773, -0.06391492486000061, 0.05239665508270264, -0.012742917984724045, 0.13935032486915588, -0.12078027427196503, 0.12242427468299866, 0.07952207326889038, -0.12075992673635483, -0.08160717785358429, -0.08542709797620773, -0.06004967540502548, 0.028578216210007668, -0.13735643029212952, -0.11579947918653488, -0.20217101275920868, 0.06525477766990662, 0.025150900706648827, -0.09365446865558624, 0.024073705077171326, 0.11025649309158325, 0.046674344688653946, -0.09482308477163315, 0.068327896296978, 0.06563585251569748, 0.033141374588012695, -0.003950865473598242, -0.17725834250450134, -0.07665399461984634, -0.11823233962059021, -0.04441085830330849, 0.04747013747692108, -0.15337997674942017, -0.014459827914834023, 0.11375034600496292, -0.08809535950422287, -0.05952518805861473, -0.14188267290592194, -0.09706740081310272, 0.07732948660850525, 0.007193283177912235, -0.01294909231364727, 0.1474040150642395, -0.11240071803331375, 0.1671672761440277, 0.12497269362211227, 0.16359736025333405, -0.0008840961963869631, -0.2016848772764206, -0.150294691324234, -0.03724348917603493, 0.08106687664985657, 0.10406683385372162, -0.12109658122062683, 0.10683555901050568, 0.0921524241566658, 0.09021119028329849, -0.16950353980064392, -0.1430114358663559, -0.08378829807043076, 0.0068276249803602695, -0.02741231396794319, -0.09952805191278458, -0.12291727215051651, -0.15489257872104645, -0.002961397171020508, 0.05754615366458893], [-0.15450191497802734, -0.09990877658128738, -0.13150326907634735, -0.15667742490768433, 0.019114330410957336, -0.2105068564414978, -0.09847670793533325, -0.017259716987609863, -0.004769992548972368, -0.04940588399767876, -0.16240164637565613, -0.03282422199845314, 0.031846966594457626, -0.1019144207239151, -0.1347273588180542, 0.07789084315299988, -0.033289261162281036, -0.1620815396308899, 0.08521948754787445, 0.13414044678211212, -0.12851250171661377, 0.05030365288257599, -0.14753597974777222, -0.08270678669214249, 0.011596602387726307, 0.03452698886394501, 0.03262699395418167, -0.10730603337287903, -0.04775112867355347, 0.07628856599330902, 0.13158723711967468, 0.031985536217689514, -0.10792391747236252, -0.07481150329113007, 0.09265516698360443, -0.06353168934583664, -0.03188019245862961, 0.09309391677379608, -0.08472123742103577, 0.07524339854717255, -0.008113082498311996, -0.07578127086162567, -0.08289637416601181, -0.03267849609255791, -0.015431701205670834, 0.05596248060464859, -0.014078466221690178, 0.08093412220478058, 0.05472531542181969, -0.0070959217846393585, -0.19257378578186035, -0.03596096485853195, 0.06758727878332138, -0.009785429574549198, -0.06885959953069687, -0.17993149161338806, -0.0313735269010067, -0.14507131278514862, -0.11769986152648926, -0.04996322840452194, -0.07697206735610962, 0.05238627642393112, 0.15799976885318756, -0.13091599941253662, -0.18863563239574432, 0.13021138310432434, -0.07961215078830719, -0.14082661271095276, -0.13923881947994232, -0.039656851440668106, 0.011758742853999138, 0.08096390217542648, -0.18185868859291077, 0.09812019020318985, -0.04628981649875641, -0.1839548796415329, -0.029225461184978485, 0.0988810658454895, -0.11690282076597214, 0.12425675243139267, 0.04724813997745514, -0.062109947204589844, -0.0375075601041317, -0.05890551581978798, -0.07038275897502899, 0.03922516852617264, 0.13303527235984802, -0.04738549143075943, 0.04927944019436836, -0.189006507396698, -0.1146446168422699, -0.07229433953762054, 0.10001788288354874, 0.0345996730029583, -0.02214525267481804, 0.07299516350030899, 0.14825455844402313, -0.03495725244283676, -0.14160357415676117, -0.11407215148210526, -0.020594868808984756, -0.0335712730884552, 0.0034296682570129633, 0.11474169790744781, -0.05894356220960617, 0.11353082954883575, -0.13995930552482605, -0.10151169449090958, 0.017399221658706665, -0.21119898557662964, -0.10547789186239243, -0.14317837357521057, -0.06617092341184616, -0.13635221123695374, 0.0492587611079216, -0.13827942311763763, 0.01718437299132347, -0.06752773374319077, 0.045505840331315994, 0.03415476158261299, -0.054118767380714417, -0.04275181144475937, 0.023835374042391777, 0.15637309849262238, -0.08167051523923874, -0.06846898794174194, -0.0922490656375885, -0.09663578867912292], [0.04876422882080078, 0.01464036200195551, -0.03985181078314781, -0.027058925479650497, 0.025527074933052063, 0.13626906275749207, -0.03998469188809395, 0.0032856613397598267, -0.03717467561364174, 0.03982468321919441, 0.09433870017528534, 0.14267289638519287, 0.11266865581274033, -0.11294395476579666, -0.111302949488163, 0.10600846260786057, 0.04732950031757355, 0.15831749141216278, -0.08050166070461273, 0.0020057244691997766, 0.08494704216718674, 0.0796176940202713, 0.014152118936181068, -0.13813042640686035, 0.03678131476044655, -0.13801252841949463, -0.1551404446363449, 0.10303989052772522, 0.03404127061367035, -0.0014161472208797932, -0.036953944712877274, -0.04911244288086891, 0.039087142795324326, 0.021296340972185135, 0.042664043605327606, 0.09060606360435486, 0.11841940134763718, -0.03963550925254822, 0.0016862183110788465, -0.0652436763048172, -0.06970129162073135, -0.04912811890244484, -0.1425178050994873, 0.19369064271450043, -0.07678662985563278, 0.014027695171535015, -0.07147904485464096, -0.07997125387191772, 0.07407822459936142, -0.04980979487299919, -0.064376600086689, -0.060403503477573395, -0.10044561326503754, 0.15601015090942383, 0.08149779587984085, -0.10318423807621002, 0.15685933828353882, 0.03531752899289131, 0.040295351296663284, 0.11123865842819214, 0.009989322163164616, -0.007950801402330399, -0.06439763307571411, 0.09943738579750061, -0.05470917746424675, 0.1471092402935028, 0.07396494597196579, 0.11243237555027008, 0.11456076800823212, 0.09481029957532883, 0.09794531762599945, -0.14747540652751923, 0.13634902238845825, -0.059736356139183044, -0.0852179005742073, 0.003692764090374112, -0.12960410118103027, 0.07268644869327545, 0.11819920688867569, 0.057442087680101395, -0.09192851185798645, -0.08393659442663193, 0.08424892276525497, -0.07592166215181351, 0.0058935051783919334, -0.08473142236471176, -0.06821513175964355, 0.07849045097827911, -0.05171880125999451, -0.041469767689704895, -0.030486660078167915, 0.008305191062390804, -0.006714594084769487, -0.038175858557224274, -0.07670287787914276, -0.17025791108608246, 0.10703225433826447, 0.10074210911989212, 0.1715356707572937, 0.04367697238922119, -0.14499147236347198, -0.024374311789870262, -0.09550288319587708, -0.09630923718214035, 0.12465977668762207, 0.01742091216146946, -0.0992613211274147, 0.03630852326750755, -0.08413935452699661, 0.14159737527370453, 0.0767066553235054, 0.12637530267238617, 0.05884963646531105, 0.1686667799949646, 0.14837677776813507, -0.040978558361530304, -0.001013643923215568, -0.13906879723072052, 0.008918428793549538, 0.12844499945640564, 0.11112025380134583, 0.05730309337377548, -0.11755263060331345, 0.012166069820523262, 0.052475765347480774, 0.02746122144162655, 0.0259208083152771, 0.04277986288070679], [-0.17638060450553894, 0.16314683854579926, -0.05243448540568352, -0.109743133187294, 0.09678006172180176, 0.054520849138498306, -0.020264018326997757, -0.15222103893756866, 0.1292385458946228, 0.18184851109981537, -0.18475058674812317, -0.1504281610250473, -0.05042535066604614, 0.1568395048379898, 0.03194519132375717, 0.11080586165189743, 0.14458146691322327, -0.09686548262834549, 0.04987170174717903, 0.05677744746208191, -0.042157068848609924, 0.13469421863555908, 0.08839324116706848, -0.0010505740065127611, 0.04415719211101532, 0.039074141532182693, -0.0391165129840374, 0.17909029126167297, 0.09947193413972855, 0.12308482825756073, 0.027027573436498642, 0.023883411660790443, 0.07664687931537628, -0.0047398461028933525, -0.14496774971485138, -0.023991528898477554, 0.12123733758926392, -0.13772282004356384, 0.04028039798140526, -0.07652076333761215, -0.0452234148979187, -0.07156846672296524, -0.0340990275144577, -0.2081914097070694, -0.03519370034337044, 0.036659520119428635, 0.14064651727676392, 0.13031166791915894, 0.05200358107686043, -0.07958093285560608, 0.06281493604183197, -0.010220324620604515, 0.04516645520925522, 0.0282706581056118, -0.00020586478058248758, -0.14588671922683716, -0.09591200202703476, 0.12549878656864166, -0.17490287125110626, -0.019888386130332947, 0.03945079445838928, -0.037722330540418625, 0.14838215708732605, 0.07415244728326797, -0.1744135320186615, -0.020304620265960693, -0.13868142664432526, 0.1606341004371643, 0.1266935169696808, 0.0058653512969613075, 0.04665066674351692, 0.05532870441675186, -0.16170825064182281, 0.07705271989107132, -0.12496688216924667, -0.017385780811309814, -0.03814288228750229, -0.03034055233001709, 0.10074111074209213, -0.03184685483574867, -0.021752413362264633, 0.1526617407798767, -0.006636396981775761, -0.12044363468885422, -0.1403573751449585, 0.00800275057554245, 0.04256530478596687, 0.043728236109018326, -0.08579397201538086, -0.07646290957927704, -0.14133669435977936, 0.005314612295478582, 0.04483628645539284, 0.08383651822805405, 0.20167702436447144, 0.13573290407657623, 0.012913723476231098, -0.11657027900218964, -0.17312560975551605, 0.12409944832324982, -0.03866606950759888, 0.10947305709123611, -0.015373929403722286, -0.1387188732624054, -0.04996976628899574, -0.10723286867141724, 0.1455651968717575, -0.003361749928444624, -0.15110044181346893, -0.05444955825805664, -0.12996134161949158, 0.10187142342329025, -0.04871484264731407, -0.17329975962638855, -0.08612003922462463, 0.1344890147447586, 0.009302801452577114, 0.02801363542675972, 0.02964846044778824, 0.06045857071876526, -0.12348973006010056, 0.022951018065214157, -0.13976265490055084, -0.08182696253061295, 0.0064291381277143955, -0.17739315330982208, 0.05134037137031555, 0.0017903298139572144], [0.11738872528076172, -0.04728510230779648, -0.1306338906288147, 0.13239328563213348, -0.1215941533446312, -0.17763812839984894, -0.04657275602221489, -0.07357596606016159, -0.11714093387126923, -0.18359026312828064, -0.06728576868772507, -0.18498650193214417, -0.08822977542877197, -0.07850129157304764, 0.0715753436088562, 0.021199915558099747, -0.0747445672750473, 0.0765080600976944, 0.12120567262172699, 0.11794463545084, 0.04269993677735329, 0.01853586733341217, 0.07578815519809723, -0.015162993222475052, 0.058123629540205, -0.017558610066771507, 0.06583385169506073, 0.1309625506401062, 0.028854822739958763, -0.051346082240343094, 0.11191792041063309, 0.003475356148555875, 0.10500363260507584, -0.0005497016245499253, 0.11529404670000076, -0.15751925110816956, 0.08573248237371445, 0.016861513257026672, -0.007311149500310421, 0.11781907081604004, -0.08667810261249542, 0.1359901875257492, 0.1382429301738739, 0.06891472637653351, 0.04170416668057442, 0.030793674290180206, -0.027406450361013412, 0.03434128686785698, -0.047196000814437866, -0.034878481179475784, -0.12293269485235214, -0.03261116147041321, -0.09246455132961273, -0.11008778214454651, 0.09436258673667908, 0.011636164039373398, 0.05159720033407211, -0.18679948151111603, -0.028696419671177864, 0.06338444352149963, -0.07866011559963226, -0.08876645565032959, 0.05399606004357338, -0.10115877538919449, -0.13400520384311676, -0.04595727473497391, 0.00266222539357841, -0.07683051377534866, 0.02123306132853031, 0.01732221059501171, 0.052557386457920074, 0.05292321741580963, -0.14475513994693756, 0.11277806013822556, -0.04818994924426079, -0.17085638642311096, 0.005092734936624765, 0.06077355146408081, -0.03883662074804306, 0.12113500386476517, -0.10471787303686142, 0.03133440017700195, -0.05449932813644409, 0.01316374633461237, -0.129104882478714, -0.17971919476985931, 0.1831239014863968, 0.07105662673711777, -0.09313403815031052, 0.024198045954108238, -0.12489311397075653, 0.010945098474621773, 0.08451496064662933, -0.13768041133880615, 0.17433299124240875, -0.13386760652065277, -0.08502247184515, 0.13236673176288605, -0.15264074504375458, 0.07812216132879257, -0.03819836303591728, 0.1592726856470108, -0.1346621811389923, 0.08470084518194199, -0.12593595683574677, -0.06902274489402771, 0.10660632699728012, -0.09285342693328857, -0.10718897730112076, 0.08554248511791229, 0.09657617658376694, -0.10069427639245987, 0.08884084969758987, 0.114848293364048, 0.020928649231791496, 0.08310475200414658, -0.0025551861617714167, -0.12270800769329071, 0.06141350790858269, 0.051910240203142166, -0.06746230274438858, 0.04050455987453461, 0.07716389000415802, 0.005231346935033798, -0.0635872632265091, -0.026561560109257698, -0.05043095350265503, 0.05026721954345703], [0.19287323951721191, -0.03774562105536461, -0.027057277038693428, 0.10411494225263596, 0.10372820496559143, 0.13069714605808258, -0.009380441159009933, 0.05500103533267975, 0.12142755091190338, 0.05095862224698067, -0.0027536379639059305, 0.2124801129102707, -0.016759976744651794, 0.05584637075662613, -0.01667635887861252, 0.07164792716503143, -0.1099080890417099, 0.17489664256572723, 0.13404756784439087, 0.007336909417062998, 0.11974640935659409, -0.1368481069803238, 0.06970126926898956, -0.10103002190589905, 0.01848904974758625, 0.13822385668754578, 0.016169290989637375, -0.09639125317335129, 0.1446942687034607, 0.05739164724946022, 0.12928272783756256, 0.12569934129714966, -0.13826030492782593, 0.11933546513319016, 0.034076519310474396, 0.06418132036924362, -0.04261167719960213, -0.10457503795623779, -0.07680996507406235, -0.061021700501441956, 0.12684758007526398, 0.17817620933055878, -0.017458412796258926, 0.04359021410346031, 0.08640079200267792, -0.0072809848934412, 0.08982076495885849, -0.18401065468788147, -0.10560009628534317, 0.08667382597923279, 0.10866519063711166, 0.1169816255569458, 0.08315987884998322, -0.05208970606327057, 0.1779540479183197, -0.11338338255882263, -0.058756761252880096, 0.01493941992521286, -0.014188096858561039, -0.008835002779960632, -0.03405351564288139, 0.07459136098623276, -0.027286406606435776, 0.24284139275550842, -0.0438721738755703, -0.14675754308700562, -0.0077270581386983395, -0.11761114746332169, -0.041913121938705444, -0.06915021687746048, -0.0903877466917038, -0.12461704760789871, 0.12952251732349396, 0.1475130170583725, 0.15385866165161133, 0.0688696801662445, 0.0973009243607521, -0.08495122194290161, 0.03122095577418804, 0.08794119209051132, -0.027190284803509712, -0.036196716129779816, 0.009252939373254776, 0.0845254585146904, 0.12950493395328522, 0.17057734727859497, -0.09391148388385773, -0.037185292690992355, -0.07698336243629456, -0.02782072126865387, 0.03560725972056389, 0.07368287444114685, -0.0765264555811882, -0.07971739023923874, -0.03263530135154724, 0.1122104600071907, 0.08896572142839432, -0.12540960311889648, -0.035726066678762436, -0.008490790612995625, 0.0534118190407753, -0.08478241413831711, -0.01966257207095623, 0.10134732723236084, 0.14366695284843445, 0.1891007423400879, 0.055413272231817245, 0.1690865010023117, 0.05502692610025406, 0.06078089773654938, 0.12632545828819275, 0.1364937573671341, 0.0923176258802414, 0.13574233651161194, -0.05902070552110672, -0.018613072112202644, -0.06952796876430511, -0.05615594610571861, -0.020933514460921288, 0.12273378670215607, -0.10494990646839142, 0.07542157918214798, 0.025975961238145828, -0.15077850222587585, 0.031287167221307755, 0.15584473311901093, 0.017328977584838867, 0.13110515475273132], [-0.12607358396053314, -0.1366308629512787, -0.06571391224861145, 0.12486319243907928, -0.011789470911026001, 0.03351389616727829, -0.07542099058628082, 0.11676579713821411, -0.11105794459581375, 0.05440068989992142, 0.06078815460205078, -0.02630092389881611, -0.03189487010240555, -0.06383579969406128, -0.024480806663632393, 0.04343413561582565, 0.13949847221374512, -0.013518921099603176, 0.07283852249383926, -0.021387815475463867, -0.009459909982979298, -0.06824874877929688, 0.041687916964292526, -0.1224224790930748, -0.15706098079681396, 0.129949152469635, 0.06411699950695038, 0.11954564601182938, -0.03285220265388489, 0.09094201773405075, -0.005325367208570242, -0.054989300668239594, 0.03837810456752777, -0.04668259993195534, 0.07121443748474121, 0.03688768669962883, -0.015503347851336002, -0.11413383483886719, 0.013121204450726509, -0.044924430549144745, -0.14601117372512817, 0.019397176802158356, 0.05563889443874359, -0.1065855622291565, -0.08277276903390884, 0.15487125515937805, 0.022119976580142975, -0.043064914643764496, -0.06644246727228165, -0.023710716515779495, -0.14508962631225586, -0.1068335697054863, -0.16380566358566284, -0.04088267311453819, 0.003545452607795596, 0.11848195642232895, -0.05730989947915077, -0.07873483002185822, 0.03814595937728882, 0.11456277966499329, -0.07520052045583725, 0.09219039231538773, -0.08054675161838531, -0.11379670351743698, 0.13818642497062683, 0.04812341928482056, 0.009824037551879883, 0.03200502693653107, 0.11808709055185318, -0.1581255942583084, 0.0456363670527935, 0.03531613573431969, 0.074031300842762, 0.03051738068461418, -0.09799657762050629, -0.14817070960998535, -0.024314632639288902, 0.035463035106658936, 0.031191067770123482, 0.013851323164999485, 0.2080884575843811, -0.13635359704494476, 0.08692293614149094, 0.017495065927505493, -0.10908011347055435, -0.13864172995090485, -0.027911679819226265, 0.025384478271007538, -0.03614461049437523, -0.11939361691474915, -0.02671286091208458, 0.023849181830883026, 0.11554008722305298, 0.045833565294742584, 0.003571513807401061, -0.009609736502170563, -0.07389124482870102, -0.14901363849639893, -0.024963073432445526, -0.09209515899419785, -0.002433481626212597, -0.12372803688049316, 0.0651187002658844, -0.089625783264637, -0.162110835313797, -0.033185169100761414, 0.10833713412284851, 0.0948932021856308, 0.001105243805795908, -0.2078409343957901, -0.09356116503477097, -0.08919276297092438, 0.15279126167297363, 0.10391679406166077, -0.1704227477312088, -0.1346648931503296, 0.0826013907790184, -0.12502384185791016, 0.031546033918857574, -0.020277338102459908, -0.02995949238538742, 0.06659778952598572, -0.010519417934119701, -0.05060558766126633, -0.18747982382774353, -0.1813303530216217, -0.0014738887548446655, -0.05776851624250412], [-0.046876631677150726, -0.11646192520856857, 0.15022744238376617, 0.10534351319074631, -0.05292850732803345, -0.07315032184123993, 0.1642322987318039, 0.07083660364151001, -0.12111294269561768, 0.03329865634441376, -0.008814510889351368, -0.2128456085920334, 0.09167405217885971, 0.11313827335834503, 0.03156517818570137, 0.16589733958244324, -0.04876604676246643, -0.013313827104866505, 0.012121181935071945, 0.08483386039733887, 0.12362801283597946, -0.0891086682677269, -0.004117212723940611, -0.03098512813448906, -0.09580804407596588, 0.1410784125328064, -0.04022301360964775, 0.1503107249736786, 0.1183379665017128, 0.03572982922196388, -0.1408684104681015, -0.14823099970817566, 0.0558750294148922, -0.001482664723880589, -0.12463688105344772, -0.03709816560149193, -0.12872089445590973, 0.0213635116815567, -0.05171537399291992, -0.061102502048015594, 0.08216150104999542, -0.17182113230228424, 0.03125343844294548, -0.08508016914129257, -0.0419519804418087, 0.07897497713565826, -0.10794991999864578, -0.022694047540426254, 0.11181224137544632, -0.14553263783454895, -0.13206472992897034, -0.11161316931247711, -0.04354963079094887, -0.10034279525279999, -0.13537020981311798, -0.032534949481487274, -0.010118872858583927, 0.02748909406363964, 0.06580660492181778, 0.07393836975097656, -0.025682512670755386, -0.061016738414764404, 0.13029007613658905, -0.06976474821567535, 0.05365801230072975, -0.045425206422805786, -0.08002348244190216, 0.04175033047795296, 0.05481979623436928, -0.0705624520778656, 0.018162926658988, 0.14442108571529388, 0.0798807367682457, -0.15711107850074768, 0.014345070347189903, -0.06881467252969742, -0.11124101281166077, -0.05940615385770798, 0.0745156928896904, 0.10991290211677551, 0.12927554547786713, 0.02361467480659485, -0.07204370200634003, -0.08893051743507385, -0.10321102291345596, -0.08128456026315689, 0.1558324247598648, 0.05286746099591255, -0.0738055557012558, -0.042731866240501404, -0.0740523636341095, -0.1346026211977005, -0.1286473572254181, 0.03361491113901138, -0.07054611295461655, 0.038441386073827744, 0.15329714119434357, 0.0777035728096962, 0.09789947420358658, -0.06240178644657135, -0.012238803319633007, -0.1222257912158966, 0.057865481823682785, 0.09942018240690231, -0.004395120311528444, -0.07163327187299728, 0.024701904505491257, 0.0027617805171757936, 0.05715249106287956, -0.20457521080970764, 0.10447937995195389, -0.1337604820728302, 0.1066092848777771, -0.03721313923597336, -0.17504188418388367, 0.007969860918819904, 0.03199039399623871, 0.17287780344486237, -0.15054383873939514, 0.018322981894016266, 0.044619664549827576, -0.1624661237001419, -0.007714810315519571, -0.06377843022346497, -0.14949756860733032, -0.10542511194944382, -0.10476910322904587, 0.02462853491306305], [-0.05577414855360985, 0.0269795972853899, 0.051075782626867294, 0.09972153604030609, 0.006089657545089722, 0.09547822922468185, 0.021032942458987236, -0.14147067070007324, -0.13621066510677338, -0.020004425197839737, 0.02384650707244873, 0.07139459997415543, -0.1318032443523407, 0.1353224217891693, -0.11865517497062683, -0.10403631627559662, 0.08285300433635712, -0.07338365912437439, 0.02510005049407482, -0.12258397042751312, 0.02922200970351696, -0.07280989736318588, -0.055977798998355865, -0.036039113998413086, -0.07494644820690155, -0.08321940898895264, -0.10757762938737869, -0.12896832823753357, -0.11051793396472931, -0.14051659405231476, -0.0011452713515609503, 0.05399887636303902, 0.020683852955698967, -0.030806537717580795, -0.06942588090896606, 0.019652796909213066, 0.11886228621006012, -0.056573785841464996, 0.12527996301651, -0.02843266725540161, -0.029037650674581528, 0.18552559614181519, 0.10141362249851227, 0.027937673032283783, 0.08378734439611435, 0.07185602933168411, -0.005770818330347538, -0.08894383907318115, -0.0349389910697937, 0.1312686800956726, 0.05716666579246521, -0.06141544505953789, 0.08830726891756058, 0.11088167130947113, -0.06736607849597931, 0.06293220072984695, -0.030842341482639313, 0.08837077766656876, -0.12512150406837463, 0.0469910204410553, 0.014502561651170254, 0.08210263401269913, -0.09880263358354568, 0.1508292555809021, -0.02253689616918564, -0.05641716718673706, 0.13122929632663727, 0.028184184804558754, -0.10796691477298737, 0.011390543542802334, -0.006171294488012791, -0.13904431462287903, -0.09324721992015839, 0.19522522389888763, -0.026504933834075928, 0.04601685330271721, 0.15321092307567596, -0.14456896483898163, 0.06790685653686523, -0.028187507763504982, 0.050209976732730865, -0.08643008768558502, -0.01133415661752224, 0.16086344420909882, 0.04338013380765915, -0.04775688052177429, -0.1423584669828415, -0.02110140398144722, -0.07632693648338318, 0.07522879540920258, 0.10352295637130737, 0.0857422724366188, 0.11497435718774796, 0.08105332404375076, 0.05085046961903572, -0.021830404177308083, 0.13481727242469788, -0.043588872998952866, 0.12531565129756927, -0.04006766155362129, 0.0468679741024971, 0.044140517711639404, -0.048494841903448105, 0.16755592823028564, -0.04875827208161354, -0.029215272516012192, -0.0879262238740921, 0.08935724198818207, -0.07700064778327942, 0.1261374056339264, 0.016390111297369003, 0.21617719531059265, 0.049264561384916306, 0.048833996057510376, -0.04075561463832855, 0.041159890592098236, 0.0038164968136698008, -0.07114388793706894, -0.048874951899051666, 0.11475536227226257, 0.09643501043319702, -0.07323066890239716, -0.09900626540184021, 0.01175170298665762, 0.10014528036117554, 0.13730965554714203, -0.12343655526638031, 0.005495965480804443], [-0.19885624945163727, 0.07897371053695679, -0.12224207818508148, -0.054958365857601166, 0.07324862480163574, -0.09730106592178345, 0.09929504990577698, 0.08792228996753693, -0.10784339904785156, 0.06123153865337372, 0.020025737583637238, -0.17122894525527954, 0.1611354500055313, 0.06549251079559326, 0.11078973859548569, 0.1347314715385437, 0.00494810938835144, -0.01235865242779255, -0.039693109691143036, 0.171627014875412, -0.05592511221766472, 0.048807933926582336, 0.10448415577411652, 0.06867385655641556, 0.045578595250844955, 0.04228847473859787, 0.16683639585971832, 0.18712298572063446, -0.12234517931938171, 0.164251908659935, 0.07066497206687927, -0.14685706794261932, -0.22643350064754486, 0.14215022325515747, 0.020151671022176743, -0.05102314054965973, 0.10683465003967285, 0.04158967733383179, -0.11825082451105118, 0.009160950779914856, -0.16437645256519318, -0.14872299134731293, -0.05539426580071449, 0.07023155689239502, -0.16166509687900543, -0.07979065924882889, 0.05879184231162071, -0.1204664409160614, 0.12388366460800171, 0.04624359309673309, -0.06064746528863907, -0.0032480256631970406, -0.12141565978527069, 0.06254059076309204, 0.11659274250268936, -0.023886842653155327, 0.13839302957057953, 0.055309999734163284, -0.07789837568998337, -0.04303746670484543, -0.052154455333948135, -0.10315060615539551, 0.010291785933077335, 0.07430735975503922, 0.14276936650276184, 0.027263760566711426, 0.06472466140985489, 0.17525659501552582, 0.08280378580093384, 0.052551522850990295, 0.02026643045246601, -0.1276891678571701, 0.09457685798406601, -0.05005376413464546, -0.156645268201828, -0.007945851422846317, -0.1747151017189026, 0.10402059555053711, 0.18769726157188416, -0.03412594646215439, 0.1910075843334198, 0.13153782486915588, 0.13447622954845428, -0.1687634140253067, -0.07931213825941086, -0.08018747717142105, -0.013116220012307167, -0.13274668157100677, 0.09230145812034607, 0.11395445466041565, -0.026422055438160896, 0.11505831778049469, 0.1352955400943756, -0.1061871275305748, 0.08803313970565796, -0.025482177734375, -0.04640229046344757, 0.015100589022040367, -0.15506397187709808, 0.12461629509925842, 0.13728532195091248, 0.04529963806271553, -0.19041380286216736, 0.07881761342287064, -0.19709444046020508, 0.04647240415215492, -0.03131084144115448, 0.05650634318590164, 0.0727124959230423, -0.030093807727098465, -0.08982628583908081, 0.0921340361237526, 0.059797100722789764, 0.003102915594354272, 0.04549676179885864, -0.021170761436223984, 0.06420086324214935, -0.05447903275489807, -0.08575955033302307, -0.0846288800239563, 0.13897651433944702, 0.039445552974939346, 0.060049865394830704, -0.11520980298519135, -0.07754155993461609, 0.03526487946510315, 0.062234386801719666, -0.13981938362121582], [-0.12204073369503021, -0.0016325929900631309, 0.005936427507549524, 0.03312860429286957, 0.0028101950883865356, -0.10952523350715637, 0.148768812417984, 0.08420054614543915, -0.10945753008127213, -0.005297673400491476, -0.05619713291525841, 0.03142339363694191, 0.12515929341316223, 0.028774788603186607, -0.11999248713254929, 0.06034242361783981, 0.1016877293586731, -0.18220184743404388, -0.053040213882923126, -0.08741088211536407, 0.14814934134483337, 0.04276205599308014, -0.1747819483280182, 0.16126830875873566, -0.11427681893110275, -0.034491557627916336, -0.0018799342215061188, 0.0619654543697834, 0.08284937590360641, 0.182718887925148, 0.07955672591924667, 0.08377569913864136, 0.04809141904115677, -0.11477069556713104, -0.027557728812098503, 0.017435401678085327, -0.08625904470682144, 0.06866571307182312, 0.045132607221603394, 0.053083837032318115, -0.11710275709629059, -0.15384291112422943, -0.017246916890144348, -0.22242164611816406, -0.12925247848033905, -0.059547752141952515, -0.12860235571861267, 0.01563076861202717, -0.06085917726159096, 0.08863343298435211, -0.13841046392917633, 0.007485881447792053, 0.07719440758228302, -0.0999433845281601, 0.12386364489793777, 0.11756430566310883, -0.011572995223104954, -0.0893232449889183, -0.16796404123306274, 0.06238014996051788, -0.03936522454023361, -0.010597513057291508, 0.12633441388607025, -0.1152677908539772, 0.08426696807146072, -0.07557641714811325, -0.10377335548400879, -0.08140358328819275, -0.013682404533028603, -0.1433364599943161, 0.15432852506637573, -0.029890507459640503, 0.12848182022571564, -0.15941542387008667, -0.13657020032405853, -0.0034126057289540768, -0.14392435550689697, 0.1101660430431366, 0.13638027012348175, 0.08873207867145538, -0.020450429990887642, 0.13944050669670105, -0.0763155147433281, -0.09119285643100739, -0.055232275277376175, -0.0506131611764431, 0.0691608116030693, 0.1545615941286087, 0.08566714078187943, -0.015482933260500431, -0.19573920965194702, 0.08930248022079468, -0.17951162159442902, -0.06971653550863266, 0.1851172149181366, 0.07730407267808914, -0.012843471951782703, 0.15984798967838287, 0.02364436909556389, -0.05225842818617821, 0.13406263291835785, 0.053340550512075424, -0.10300934314727783, -0.04221378266811371, -0.1340886652469635, -0.013530018739402294, -0.11990144103765488, -0.114731565117836, -0.10360104590654373, -0.08129642903804779, 0.002331638475880027, -0.021846406161785126, -0.10014957934617996, 0.03599327802658081, -0.007427564822137356, 0.015977539122104645, 0.09178632497787476, 0.1441890150308609, -0.0378837063908577, 0.036468349397182465, -0.04662979394197464, 0.16041310131549835, 0.011192765086889267, 0.05565081536769867, 0.06802960485219955, -0.17167380452156067, 0.05167423188686371, 0.017746448516845703], [0.2254439741373062, -0.15993782877922058, -0.11353418231010437, 0.08955777436494827, -0.08563169836997986, 0.11260466277599335, -0.03151671215891838, 0.1213938295841217, 0.10454122722148895, 0.06153866648674011, 0.01736433617770672, -0.07310418784618378, -0.15016470849514008, 0.0960024893283844, -0.07411845028400421, -0.07033758610486984, 0.08626170456409454, -0.0684090182185173, 0.07680424302816391, -0.016221459954977036, -0.04331672191619873, 